Receptor,Embedding_1,Embedding_2,Embedding_3,Embedding_4,Embedding_5,Embedding_6,Embedding_7,Embedding_8,Embedding_9,Embedding_10,Embedding_11,Embedding_12,Embedding_13,Embedding_14,Embedding_15,Embedding_16,Embedding_17,Embedding_18,Embedding_19,Embedding_20,Embedding_21,Embedding_22,Embedding_23,Embedding_24,Embedding_25,Embedding_26,Embedding_27,Embedding_28,Embedding_29,Embedding_30,Embedding_31,Embedding_32,Embedding_33,Embedding_34,Embedding_35,Embedding_36,Embedding_37,Embedding_38,Embedding_39,Embedding_40,Embedding_41,Embedding_42,Embedding_43,Embedding_44,Embedding_45,Embedding_46,Embedding_47,Embedding_48,Embedding_49,Embedding_50,Embedding_51,Embedding_52,Embedding_53,Embedding_54,Embedding_55,Embedding_56,Embedding_57,Embedding_58,Embedding_59,Embedding_60,Embedding_61,Embedding_62,Embedding_63,Embedding_64,Embedding_65,Embedding_66,Embedding_67,Embedding_68,Embedding_69,Embedding_70,Embedding_71,Embedding_72,Embedding_73,Embedding_74,Embedding_75,Embedding_76,Embedding_77,Embedding_78,Embedding_79,Embedding_80,Embedding_81,Embedding_82,Embedding_83,Embedding_84,Embedding_85,Embedding_86,Embedding_87,Embedding_88,Embedding_89,Embedding_90,Embedding_91,Embedding_92,Embedding_93,Embedding_94,Embedding_95,Embedding_96,Embedding_97,Embedding_98,Embedding_99,Embedding_100,Embedding_101,Embedding_102,Embedding_103,Embedding_104,Embedding_105,Embedding_106,Embedding_107,Embedding_108,Embedding_109,Embedding_110,Embedding_111,Embedding_112,Embedding_113,Embedding_114,Embedding_115,Embedding_116,Embedding_117,Embedding_118,Embedding_119,Embedding_120,Embedding_121,Embedding_122,Embedding_123,Embedding_124,Embedding_125,Embedding_126,Embedding_127,Embedding_128,Embedding_129,Embedding_130,Embedding_131,Embedding_132,Embedding_133,Embedding_134,Embedding_135,Embedding_136,Embedding_137,Embedding_138,Embedding_139,Embedding_140,Embedding_141,Embedding_142,Embedding_143,Embedding_144,Embedding_145,Embedding_146,Embedding_147,Embedding_148,Embedding_149,Embedding_150,Embedding_151,Embedding_152,Embedding_153,Embedding_154,Embedding_155,Embedding_156,Embedding_157,Embedding_158,Embedding_159,Embedding_160,Embedding_161,Embedding_162,Embedding_163,Embedding_164,Embedding_165,Embedding_166,Embedding_167,Embedding_168,Embedding_169,Embedding_170,Embedding_171,Embedding_172,Embedding_173,Embedding_174,Embedding_175,Embedding_176,Embedding_177,Embedding_178,Embedding_179,Embedding_180,Embedding_181,Embedding_182,Embedding_183,Embedding_184,Embedding_185,Embedding_186,Embedding_187,Embedding_188,Embedding_189,Embedding_190,Embedding_191,Embedding_192,Embedding_193,Embedding_194,Embedding_195,Embedding_196,Embedding_197,Embedding_198,Embedding_199,Embedding_200,Embedding_201,Embedding_202,Embedding_203,Embedding_204,Embedding_205,Embedding_206,Embedding_207,Embedding_208,Embedding_209,Embedding_210,Embedding_211,Embedding_212,Embedding_213,Embedding_214,Embedding_215,Embedding_216,Embedding_217,Embedding_218,Embedding_219,Embedding_220,Embedding_221,Embedding_222,Embedding_223,Embedding_224,Embedding_225,Embedding_226,Embedding_227,Embedding_228,Embedding_229,Embedding_230,Embedding_231,Embedding_232,Embedding_233,Embedding_234,Embedding_235,Embedding_236,Embedding_237,Embedding_238,Embedding_239,Embedding_240,Embedding_241,Embedding_242,Embedding_243,Embedding_244,Embedding_245,Embedding_246,Embedding_247,Embedding_248,Embedding_249,Embedding_250,Embedding_251,Embedding_252,Embedding_253,Embedding_254,Embedding_255,Embedding_256,Embedding_257,Embedding_258,Embedding_259,Embedding_260,Embedding_261,Embedding_262,Embedding_263,Embedding_264,Embedding_265,Embedding_266,Embedding_267,Embedding_268,Embedding_269,Embedding_270,Embedding_271,Embedding_272,Embedding_273,Embedding_274,Embedding_275,Embedding_276,Embedding_277,Embedding_278,Embedding_279,Embedding_280,Embedding_281,Embedding_282,Embedding_283,Embedding_284,Embedding_285,Embedding_286,Embedding_287,Embedding_288,Embedding_289,Embedding_290,Embedding_291,Embedding_292,Embedding_293,Embedding_294,Embedding_295,Embedding_296,Embedding_297,Embedding_298,Embedding_299,Embedding_300,Embedding_301,Embedding_302,Embedding_303,Embedding_304,Embedding_305,Embedding_306,Embedding_307,Embedding_308,Embedding_309,Embedding_310,Embedding_311,Embedding_312,Embedding_313,Embedding_314,Embedding_315,Embedding_316,Embedding_317,Embedding_318,Embedding_319,Embedding_320,Embedding_321,Embedding_322,Embedding_323,Embedding_324,Embedding_325,Embedding_326,Embedding_327,Embedding_328,Embedding_329,Embedding_330,Embedding_331,Embedding_332,Embedding_333,Embedding_334,Embedding_335,Embedding_336,Embedding_337,Embedding_338,Embedding_339,Embedding_340,Embedding_341,Embedding_342,Embedding_343,Embedding_344,Embedding_345,Embedding_346,Embedding_347,Embedding_348,Embedding_349,Embedding_350,Embedding_351,Embedding_352,Embedding_353,Embedding_354,Embedding_355,Embedding_356,Embedding_357,Embedding_358,Embedding_359,Embedding_360,Embedding_361,Embedding_362,Embedding_363,Embedding_364,Embedding_365,Embedding_366,Embedding_367,Embedding_368,Embedding_369,Embedding_370,Embedding_371,Embedding_372,Embedding_373,Embedding_374,Embedding_375,Embedding_376,Embedding_377,Embedding_378,Embedding_379,Embedding_380,Embedding_381,Embedding_382,Embedding_383,Embedding_384,Embedding_385,Embedding_386,Embedding_387,Embedding_388,Embedding_389,Embedding_390,Embedding_391,Embedding_392,Embedding_393,Embedding_394,Embedding_395,Embedding_396,Embedding_397,Embedding_398,Embedding_399,Embedding_400,Embedding_401,Embedding_402,Embedding_403,Embedding_404,Embedding_405,Embedding_406,Embedding_407,Embedding_408,Embedding_409,Embedding_410,Embedding_411,Embedding_412,Embedding_413,Embedding_414,Embedding_415,Embedding_416,Embedding_417,Embedding_418,Embedding_419,Embedding_420,Embedding_421,Embedding_422,Embedding_423,Embedding_424,Embedding_425,Embedding_426,Embedding_427,Embedding_428,Embedding_429,Embedding_430,Embedding_431,Embedding_432,Embedding_433,Embedding_434,Embedding_435,Embedding_436,Embedding_437,Embedding_438,Embedding_439,Embedding_440,Embedding_441,Embedding_442,Embedding_443,Embedding_444,Embedding_445,Embedding_446,Embedding_447,Embedding_448,Embedding_449,Embedding_450,Embedding_451,Embedding_452,Embedding_453,Embedding_454,Embedding_455,Embedding_456,Embedding_457,Embedding_458,Embedding_459,Embedding_460,Embedding_461,Embedding_462,Embedding_463,Embedding_464,Embedding_465,Embedding_466,Embedding_467,Embedding_468,Embedding_469,Embedding_470,Embedding_471,Embedding_472,Embedding_473,Embedding_474,Embedding_475,Embedding_476,Embedding_477,Embedding_478,Embedding_479,Embedding_480,Embedding_481,Embedding_482,Embedding_483,Embedding_484,Embedding_485,Embedding_486,Embedding_487,Embedding_488,Embedding_489,Embedding_490,Embedding_491,Embedding_492,Embedding_493,Embedding_494,Embedding_495,Embedding_496,Embedding_497,Embedding_498,Embedding_499,Embedding_500,Embedding_501,Embedding_502,Embedding_503,Embedding_504,Embedding_505,Embedding_506,Embedding_507,Embedding_508,Embedding_509,Embedding_510,Embedding_511,Embedding_512,Embedding_513,Embedding_514,Embedding_515,Embedding_516,Embedding_517,Embedding_518,Embedding_519,Embedding_520,Embedding_521,Embedding_522,Embedding_523,Embedding_524,Embedding_525,Embedding_526,Embedding_527,Embedding_528,Embedding_529,Embedding_530,Embedding_531,Embedding_532,Embedding_533,Embedding_534,Embedding_535,Embedding_536,Embedding_537,Embedding_538,Embedding_539,Embedding_540,Embedding_541,Embedding_542,Embedding_543,Embedding_544,Embedding_545,Embedding_546,Embedding_547,Embedding_548,Embedding_549,Embedding_550,Embedding_551,Embedding_552,Embedding_553,Embedding_554,Embedding_555,Embedding_556,Embedding_557,Embedding_558,Embedding_559,Embedding_560,Embedding_561,Embedding_562,Embedding_563,Embedding_564,Embedding_565,Embedding_566,Embedding_567,Embedding_568,Embedding_569,Embedding_570,Embedding_571,Embedding_572,Embedding_573,Embedding_574,Embedding_575,Embedding_576,Embedding_577,Embedding_578,Embedding_579,Embedding_580,Embedding_581,Embedding_582,Embedding_583,Embedding_584,Embedding_585,Embedding_586,Embedding_587,Embedding_588,Embedding_589,Embedding_590,Embedding_591,Embedding_592,Embedding_593,Embedding_594,Embedding_595,Embedding_596,Embedding_597,Embedding_598,Embedding_599,Embedding_600,Embedding_601,Embedding_602,Embedding_603,Embedding_604,Embedding_605,Embedding_606,Embedding_607,Embedding_608,Embedding_609,Embedding_610,Embedding_611,Embedding_612,Embedding_613,Embedding_614,Embedding_615,Embedding_616,Embedding_617,Embedding_618,Embedding_619,Embedding_620,Embedding_621,Embedding_622,Embedding_623,Embedding_624,Embedding_625,Embedding_626,Embedding_627,Embedding_628,Embedding_629,Embedding_630,Embedding_631,Embedding_632,Embedding_633,Embedding_634,Embedding_635,Embedding_636,Embedding_637,Embedding_638,Embedding_639,Embedding_640,Embedding_641,Embedding_642,Embedding_643,Embedding_644,Embedding_645,Embedding_646,Embedding_647,Embedding_648,Embedding_649,Embedding_650,Embedding_651,Embedding_652,Embedding_653,Embedding_654,Embedding_655,Embedding_656,Embedding_657,Embedding_658,Embedding_659,Embedding_660,Embedding_661,Embedding_662,Embedding_663,Embedding_664,Embedding_665,Embedding_666,Embedding_667,Embedding_668,Embedding_669,Embedding_670,Embedding_671,Embedding_672,Embedding_673,Embedding_674,Embedding_675,Embedding_676,Embedding_677,Embedding_678,Embedding_679,Embedding_680,Embedding_681,Embedding_682,Embedding_683,Embedding_684,Embedding_685,Embedding_686,Embedding_687,Embedding_688,Embedding_689,Embedding_690,Embedding_691,Embedding_692,Embedding_693,Embedding_694,Embedding_695,Embedding_696,Embedding_697,Embedding_698,Embedding_699,Embedding_700,Embedding_701,Embedding_702,Embedding_703,Embedding_704,Embedding_705,Embedding_706,Embedding_707,Embedding_708,Embedding_709,Embedding_710,Embedding_711,Embedding_712,Embedding_713,Embedding_714,Embedding_715,Embedding_716,Embedding_717,Embedding_718,Embedding_719,Embedding_720,Embedding_721,Embedding_722,Embedding_723,Embedding_724,Embedding_725,Embedding_726,Embedding_727,Embedding_728,Embedding_729,Embedding_730,Embedding_731,Embedding_732,Embedding_733,Embedding_734,Embedding_735,Embedding_736,Embedding_737,Embedding_738,Embedding_739,Embedding_740,Embedding_741,Embedding_742,Embedding_743,Embedding_744,Embedding_745,Embedding_746,Embedding_747,Embedding_748,Embedding_749,Embedding_750,Embedding_751,Embedding_752,Embedding_753,Embedding_754,Embedding_755,Embedding_756,Embedding_757,Embedding_758,Embedding_759,Embedding_760,Embedding_761,Embedding_762,Embedding_763,Embedding_764,Embedding_765,Embedding_766,Embedding_767,Embedding_768,Embedding_769,Embedding_770,Embedding_771,Embedding_772,Embedding_773,Embedding_774,Embedding_775,Embedding_776,Embedding_777,Embedding_778,Embedding_779,Embedding_780,Embedding_781,Embedding_782,Embedding_783,Embedding_784,Embedding_785,Embedding_786,Embedding_787,Embedding_788,Embedding_789,Embedding_790,Embedding_791,Embedding_792,Embedding_793,Embedding_794,Embedding_795,Embedding_796,Embedding_797,Embedding_798,Embedding_799,Embedding_800,Embedding_801,Embedding_802,Embedding_803,Embedding_804,Embedding_805,Embedding_806,Embedding_807,Embedding_808,Embedding_809,Embedding_810,Embedding_811,Embedding_812,Embedding_813,Embedding_814,Embedding_815,Embedding_816,Embedding_817,Embedding_818,Embedding_819,Embedding_820,Embedding_821,Embedding_822,Embedding_823,Embedding_824,Embedding_825,Embedding_826,Embedding_827,Embedding_828,Embedding_829,Embedding_830,Embedding_831,Embedding_832,Embedding_833,Embedding_834,Embedding_835,Embedding_836,Embedding_837,Embedding_838,Embedding_839,Embedding_840,Embedding_841,Embedding_842,Embedding_843,Embedding_844,Embedding_845,Embedding_846,Embedding_847,Embedding_848,Embedding_849,Embedding_850,Embedding_851,Embedding_852,Embedding_853,Embedding_854,Embedding_855,Embedding_856,Embedding_857,Embedding_858,Embedding_859,Embedding_860,Embedding_861,Embedding_862,Embedding_863,Embedding_864,Embedding_865,Embedding_866,Embedding_867,Embedding_868,Embedding_869,Embedding_870,Embedding_871,Embedding_872,Embedding_873,Embedding_874,Embedding_875,Embedding_876,Embedding_877,Embedding_878,Embedding_879,Embedding_880,Embedding_881,Embedding_882,Embedding_883,Embedding_884,Embedding_885,Embedding_886,Embedding_887,Embedding_888,Embedding_889,Embedding_890,Embedding_891,Embedding_892,Embedding_893,Embedding_894,Embedding_895,Embedding_896,Embedding_897,Embedding_898,Embedding_899,Embedding_900,Embedding_901,Embedding_902,Embedding_903,Embedding_904,Embedding_905,Embedding_906,Embedding_907,Embedding_908,Embedding_909,Embedding_910,Embedding_911,Embedding_912,Embedding_913,Embedding_914,Embedding_915,Embedding_916,Embedding_917,Embedding_918,Embedding_919,Embedding_920,Embedding_921,Embedding_922,Embedding_923,Embedding_924,Embedding_925,Embedding_926,Embedding_927,Embedding_928,Embedding_929,Embedding_930,Embedding_931,Embedding_932,Embedding_933,Embedding_934,Embedding_935,Embedding_936,Embedding_937,Embedding_938,Embedding_939,Embedding_940,Embedding_941,Embedding_942,Embedding_943,Embedding_944,Embedding_945,Embedding_946,Embedding_947,Embedding_948,Embedding_949,Embedding_950,Embedding_951,Embedding_952,Embedding_953,Embedding_954,Embedding_955,Embedding_956,Embedding_957,Embedding_958,Embedding_959,Embedding_960,Embedding_961,Embedding_962,Embedding_963,Embedding_964,Embedding_965,Embedding_966,Embedding_967,Embedding_968,Embedding_969,Embedding_970,Embedding_971,Embedding_972,Embedding_973,Embedding_974,Embedding_975,Embedding_976,Embedding_977,Embedding_978,Embedding_979,Embedding_980,Embedding_981,Embedding_982,Embedding_983,Embedding_984,Embedding_985,Embedding_986,Embedding_987,Embedding_988,Embedding_989,Embedding_990,Embedding_991,Embedding_992,Embedding_993,Embedding_994,Embedding_995,Embedding_996,Embedding_997,Embedding_998,Embedding_999,Embedding_1000,Embedding_1001,Embedding_1002,Embedding_1003,Embedding_1004,Embedding_1005,Embedding_1006,Embedding_1007,Embedding_1008,Embedding_1009,Embedding_1010,Embedding_1011,Embedding_1012,Embedding_1013,Embedding_1014,Embedding_1015,Embedding_1016,Embedding_1017,Embedding_1018,Embedding_1019,Embedding_1020,Embedding_1021,Embedding_1022,Embedding_1023,Embedding_1024
D1R,0.00714339,0.07618871,0.030384485,0.0083603,-0.0014738903,0.0035648122,-0.027164401,-0.028556086,0.026328716,-0.041047268,-0.0021698421,0.033936016,-0.00676446,0.016288862,0.023227047,-0.0036855172,0.018298043,0.013589287,-0.0047752527,-0.017404627,-0.03514931,-0.02867674,0.07328234,-0.005587143,-0.013615457,-0.043413103,0.047783926,-0.017751867,-0.007112633,-0.009762792,-0.038361106,0.038358808,-0.11883723,-0.0048938706,-0.12033634,-0.0011716888,0.014906939,0.017195018,-0.018710978,0.052379165,0.005227465,-0.009540642,-0.033742502,-0.010225116,-0.007862802,-0.0034395135,0.019890439,0.007165913,0.017742211,-0.025281655,-0.039431278,0.0009267119,-0.027590584,-0.01614111,0.042332254,-0.0005881541,0.015350408,-0.07586651,-0.0109648565,0.026000777,-0.013454254,0.034986507,-0.002893822,-0.021781137,-0.0007266389,-0.009852781,-0.028319458,-0.03630617,0.01980535,-0.0018374,-0.0005948586,-0.011484182,-0.06191633,-0.016141975,0.036727358,0.027995452,0.0043992247,0.024245314,0.0032112845,0.04309779,0.03230471,0.049325533,0.003088435,0.016226301,-0.013637444,-0.018451618,0.04178469,-0.012365086,0.016438939,0.039741438,0.009127316,0.050257113,-0.023295522,0.056466825,-0.026354851,-0.011432121,-0.0013035897,0.014561677,-0.018434135,-0.030785497,-0.028684529,0.031039951,0.0061110193,0.08114207,-0.0044759796,-0.0014441024,-0.03392774,-0.0046146214,-0.009815683,-0.041081853,0.055149913,-0.023320457,-0.024926232,0.039350115,0.03098277,0.034319904,0.009088327,-0.076549426,-0.005053119,-0.012450909,-0.0181705,-0.012183059,-0.033465907,0.003241957,-0.020436995,0.011375645,-0.0032934,0.04541402,0.046549767,0.005569646,0.010065138,0.0069123907,-0.007666081,-0.0011876982,0.033185996,-0.019471169,-0.018917195,0.0010018916,0.016837105,0.029077666,0.085671015,-0.07220097,-0.03987131,-0.02163033,-0.014541694,0.003320068,0.019020922,0.00621259,0.03967007,-0.030215168,0.010315512,-0.013465871,-0.021457104,0.066484585,-0.011574285,0.0050762543,0.058145743,0.025042862,-0.03142495,0.0030880172,-0.02214601,-0.009172062,-0.009669356,-0.05468436,0.0032427849,0.018738143,0.02283323,0.040204167,-0.02484514,0.009691514,-0.007163813,0.0033368252,0.033393785,0.04127618,-0.009382984,-0.03051376,-0.059001748,0.025809452,-0.00372006,-0.02360009,0.027293703,0.0051878258,-0.055739623,-0.000287188,0.047806814,0.015748141,0.017472176,-0.016508928,-0.0096545005,-0.0277239,0.06442307,0.02829149,0.011655398,-0.00291996,0.010166648,0.086318,-0.006212147,0.0035008127,0.03667577,0.014651124,-0.044693448,0.0062770974,-0.033765074,-0.122162275,-0.01477736,-0.00852559,0.12751688,0.02471916,-0.0055574924,0.043400012,-0.021078981,-0.05132621,-0.035238095,-0.00046067094,-0.0064958646,-0.0035706088,0.0021212464,-0.04895003,-0.005013163,-0.010677757,-0.032183323,-0.035679534,0.0004684011,-0.013711836,0.034111593,0.021517398,-0.021011109,0.013727641,-0.033812113,-0.020053936,-0.004791898,0.017676229,-0.02568598,0.018306674,-0.03188585,-0.02243902,-0.0083474815,0.0024905007,-0.015406016,0.0028454477,-0.0012306076,0.012730246,-0.019262351,-0.065002464,-0.014972614,-0.00034644039,-0.011642182,-0.02405394,0.056223232,-0.036072806,-0.02717938,-0.019108161,0.0056509115,0.018398013,0.002888304,-0.0056765843,0.08400566,-0.022688882,-0.050905395,-0.017015466,-0.02509688,-0.009688488,0.013204905,-0.02415973,-0.013923741,0.02673046,-0.019238988,-0.014637866,0.028008258,-0.004524744,-0.010518209,0.00045887718,-0.029051825,-0.12320118,-0.013361261,-0.025134347,0.031537082,-0.032923885,-0.03596961,-0.07895078,0.044398412,0.047346674,-0.0093680015,-0.041332934,0.011646248,-0.0018407629,-0.004831854,0.025794638,-0.00030362446,0.030435113,-0.012948978,0.065095834,-0.02289386,-0.052050456,0.11759961,-0.013557774,-0.0010601324,-0.015438619,0.06039955,0.019133674,0.024938291,-0.023582116,-0.078554444,0.011199378,-0.007830217,-0.015409049,-0.023862204,-0.037241116,0.008345168,0.075812265,0.023913182,-0.015170629,0.008728725,0.02320539,-0.024265245,-0.035785146,-0.010841711,0.034834318,0.03236319,-0.025584742,-0.0012121596,-0.025738923,-0.0283136,-0.0053934134,-0.041173726,0.011250174,0.036686383,0.0018199041,0.012795891,-0.0057005077,-0.028767932,-0.03118105,-0.025577718,-0.0768363,0.027924899,0.03746801,0.0049134125,0.040679604,0.01268815,-0.006494167,-0.059855234,-0.01592297,-0.009479088,0.06902492,0.048083857,0.00068199367,-0.014897613,0.029082663,-0.017134497,0.012190763,0.004086042,-0.00013951282,0.0073733423,-0.027001407,0.0001095389,-0.030507164,-0.063567065,0.057339758,-0.0030411705,0.008731355,-0.04324047,-0.014210779,0.009632012,-0.012092461,0.011733993,0.025745338,-0.08482172,0.019665502,0.009664065,0.00061967125,-0.07903068,0.010280883,0.002635113,0.005822355,-0.023245867,0.020056533,-0.063047685,0.0031200594,0.030568782,-0.011421996,-0.018379295,0.007861225,0.011506794,-0.002859199,-0.012675617,0.0025295806,-0.003411302,0.056489542,-0.005335675,-0.027151916,0.013106811,0.018200245,-0.0039296523,-0.021455176,0.029470095,-0.0035183888,0.04724621,-0.022454644,-0.007838487,-0.020104911,0.03253271,0.052988194,0.04640953,-0.0077085635,-0.026046954,-0.08801795,-0.012190019,0.034237754,-0.008994589,-0.018278344,-0.0063992455,-0.0012324543,0.0047071297,-0.006173733,-0.016397629,-0.04151484,-0.0021269766,0.048162084,-0.011178926,0.01014022,0.042908326,-0.060228415,0.0028006828,-0.015654495,-0.052102163,-0.010252706,0.014453548,0.0085703535,0.049295213,-0.00021407129,-0.037153553,-0.035285093,-0.015422184,-0.031050844,0.00871597,-0.025007363,-0.032808524,0.12337641,-0.043441515,-0.049999382,0.0184148,-0.00773484,0.013925666,0.111238144,-0.040108632,-0.006541842,-0.028020699,0.0035053957,0.0107539585,0.046770252,0.020376954,-0.011123999,0.03153969,0.014427728,0.015840948,0.024247319,-0.04991333,0.05769302,0.015304994,0.026419325,-0.018221453,-0.03071944,0.011960077,0.030993115,-0.009516002,-0.049381215,0.067351356,0.013557712,0.09172862,-0.0013919005,0.0070844917,-0.011405138,0.0094866855,-0.010085463,0.0035416074,-0.0046489323,0.013191484,0.046452988,0.023392297,-0.0012321675,0.025031291,-0.036637876,-0.007143414,-0.022271186,-0.016597077,0.042614933,-0.018525539,-0.021698093,-0.0020964604,0.015533758,-0.060188808,0.100859135,-0.0047875475,0.00465438,0.0014736877,0.03919721,-0.013226143,0.03232425,-0.012446922,0.02615005,-0.00582452,0.020767778,0.008875188,-0.03963971,-0.02469243,-0.014701433,-0.008024206,0.04929918,-0.0040106517,0.0051934035,0.008125791,-0.018586967,0.019689457,-0.008364933,-0.011807926,-0.0259598,0.019004202,0.0220817,0.0013861937,-0.025508458,0.0016567792,0.015563905,0.014389543,0.02693144,-0.010413414,-0.010668689,-0.026814748,-0.033404794,-0.020641677,0.0016229538,0.00993124,-0.0030036508,0.030832808,-0.0031987182,0.033596616,0.0055758115,-0.06349175,-0.047465093,0.026304523,0.045199886,-0.025646077,-0.00018430398,0.019722914,-0.033997964,-0.005773143,0.006744682,0.010917647,-0.030830119,-0.020387333,0.0041980664,-0.010226372,-0.028955853,-0.011828594,0.041778598,-0.0027887383,-0.0076158214,-0.024567634,0.029813936,-0.008103834,0.02362315,-0.054587793,-0.0042354814,-0.017463457,-0.0029718385,0.026996637,-0.0016657729,-0.012619213,0.008852256,-0.055421002,-0.008571122,0.027654344,-0.0066998485,0.033942692,0.020208491,0.0055824374,-0.01033035,0.0042259363,-0.0056582,0.07450975,0.0046002064,-0.00044967188,-0.0019113601,0.01887337,-0.034252167,-0.02957428,0.00589992,-0.050494,0.030109763,-0.003540791,0.038799338,0.014416678,0.008444306,0.03715509,0.0018488303,0.017134143,0.049785186,-0.018297734,0.028653782,-0.0030408858,-0.016005702,0.035953674,0.0076758945,-0.009023537,0.018184436,0.018173825,0.0068014855,-0.00014346598,-0.030369524,-0.017968122,-0.033900764,-0.008508952,0.057480004,0.00077259983,-0.02055029,0.09598159,0.1431821,0.039952166,-0.019499417,-0.0336326,0.010992326,0.037308726,-0.004497523,-0.04066264,0.050192423,-0.0062533366,-0.036318436,-0.024105031,0.04589251,0.0015482161,0.042922907,0.09478166,0.030016787,-0.032828912,-0.040320795,-0.0063662333,0.031557553,0.016615208,0.017470008,0.0011578621,0.015438598,-0.03441891,0.013279952,-0.034123104,-0.0054553323,-0.03474152,0.018387532,0.019276798,0.004735838,-0.032489203,0.008291601,0.009905124,-0.050231893,0.020112671,0.02142669,-0.008887746,0.0022688922,-0.006464402,-0.06319345,-0.022648938,-0.04037608,-0.026306516,-0.037679818,-0.025146348,-0.021888485,0.0061229207,-0.0015574143,0.0092454385,-0.01085087,0.022600494,0.0043270686,0.0311331,0.015269393,-0.011113008,0.008786704,0.0011389747,-0.053360835,-0.0045292797,-0.029280368,-0.06473918,-0.023048079,0.02642189,0.03168019,0.012321102,-0.02643663,-0.022502655,-0.018006956,0.030239346,0.04095897,-0.007107229,0.002582104,0.0034708646,0.017933086,0.008272972,0.03162148,-0.0019461585,-0.036598917,-0.010190971,-0.027428333,-0.04511734,0.009551692,0.009490451,0.024056554,0.03131772,0.026202364,0.030040383,0.017344438,-0.0045782174,-0.026607672,0.03927017,-0.0102883205,-0.011604,0.041568372,0.049787972,0.022653686,-0.0012165378,-0.031009452,-0.025802497,-0.0029892242,-0.027115215,-0.0072887884,-0.056147005,-0.03511903,-0.0016726507,-0.031515468,0.022471718,-0.0245648,-0.014753052,0.010810636,-0.04518191,0.017186414,-0.04974255,-0.013325407,-0.03699227,0.03484196,-0.035157327,-0.027400784,0.026569765,-0.03145919,0.006201943,0.0028240648,0.056178696,0.04377191,-0.042795114,-0.012711987,0.03469313,-0.035159644,-0.016317872,0.037066262,0.036893874,-0.00830166,0.025402723,0.05945978,-0.012696192,-0.017918972,0.03417432,0.03548571,0.022107257,-0.0103837205,-0.0466375,0.011851854,-0.016718717,-0.05032322,-0.013416242,-0.0368476,0.012492973,0.026924912,0.07740026,-0.03783697,0.001785242,-0.018552301,0.0044139507,0.04943165,-0.008307365,0.0045688944,0.022393327,-0.006778309,-0.05391453,0.024953539,-0.0010063563,0.05107765,0.0015562233,0.045239218,-0.052796952,-0.027635504,0.020133836,-0.03399612,0.016829005,-0.03911666,0.021112306,0.02041792,0.0065740803,0.040565252,-0.035535675,0.026998544,-0.020452397,0.0052726436,-0.046784654,0.062236268,0.0038419252,0.0034865916,0.03939478,-0.006567228,0.022965346,0.053945437,-0.039387785,-0.04283008,-0.0042260354,-0.029233288,0.0052772877,0.02069175,-0.00732738,0.025317091,0.033024155,-0.04102925,0.12784418,0.024973318,0.0075127296,0.0028941813,0.004530778,-0.02545985,-0.026244383,0.0011476564,0.028928544,-0.01485695,-0.0061634425,0.008420035,-0.0113833025,-0.013402262,-0.0067302105,-0.0020288748,0.037970368,-0.014684103,0.03453895,-0.039650455,-0.008593389,-0.007432508,0.04542867,0.044140134,-0.01160259,-0.009675123,0.0067574326,0.002588631,0.002274297,-0.011162758,0.0003489935,0.005730825,-0.027110113,-0.04243323,0.02801605,0.014286579,-0.026249876,0.014145368,-0.0066546816,-0.020508934,-0.046428528,0.017015237,0.009218612,-0.021323672,0.03227938,-0.07178688,0.041481156,0.042224415,0.03757447,0.022671672,-0.02175419,-0.014028973,-0.0037068874,0.035508752,0.04822677,-0.07838176,-0.010285154,-0.0048328843,-4.069153e-06,0.064766996,0.038427986,-0.08169615,-0.022829706,0.0022238912,0.0054387255,-0.0547855,0.020560397,0.0044997395,-0.0010265721,-0.0062431567,-0.00927035,-0.0011972183,0.10837784,-0.004642944,0.031326108,0.018597132,-0.013299395,-0.0029801205,0.0168895,-0.028664537,0.047323544,-0.009156328,0.007124982,0.03318741,0.1158591,0.01943486,-0.03881162,0.019308196,-0.043890916,-0.029224824,-0.07065277,0.0001943849,0.009016991,0.0339271,0.045930263,0.015918968,0.012361375,-0.053170178,-0.014322875,0.023078931,-0.040790692,0.01925932,-0.09349421,-0.033305664,-0.026980678,0.0009727804,-0.025488034,0.014371474,0.043476753,-0.044447985,-0.011025452,-0.001837275,-0.006206419,-0.013349094,-0.021913338,0.027075892,0.011487458,-0.02974866,0.017545179,-0.01795517,-0.005937789,0.03917477,0.015989538,0.0034003,-0.008965552,0.010149299,0.013938371,0.0022944931,-0.00421962,-0.021542352,0.009310127,-0.050688587,-0.03131147,-0.09818698,0.024573857,-0.013510341,-0.008962668,0.0021735134,0.01711118,-0.117290564,-0.024822284,-0.012891785,0.028195035,0.043508496,-0.021987526,-0.013368664,0.016495978,0.02352026,-0.009968741,-0.016629338,0.019709004,-0.062631644,0.08968552,-0.009597468,-0.010780422,0.0010375549,0.007080847,-0.008681458,0.00067603425,0.016960785,0.008232786,0.045588724,0.002234277,-0.0037912077,-0.012247538,-0.013221684,0.0055344105,-0.008276568,0.015992513,0.0073220003,0.0029110713,-0.067180194,-0.0453634,0.0070502544,0.009498342,-0.0132404845,0.029745517,-0.007235861,0.00011393415,-0.041388437,-0.0047317557,-0.00030819932,0.019481473,-0.064350724,0.022200987,0.00084164616,0.013404761,-0.0048774853,0.014226632,-0.011917369,0.12751402,-0.035116192,0.031032478,0.036312517,-0.029831635,-0.005815718,-0.0029826502,-0.038483586,0.0052866153,-0.0016577982,0.006967035,-0.028229816,-0.0057564606,-0.006199084,0.02325207,-0.004334822,0.012120856,-0.015127423,-0.008953347,0.010406571
D2R,-0.003403944,0.059372667,0.025234282,0.0011031806,0.0005067431,0.013542622,-0.009401987,-0.037020564,0.008433563,-0.0128096705,-0.00021737801,0.033894476,0.011137187,-0.023256093,0.034395237,0.0032802727,0.002973353,-0.0016493851,-0.006226657,-0.012784196,-0.05062426,-0.04227191,0.07450053,0.003054623,-0.019380087,-0.04674129,0.04147585,-0.030310499,-0.021052891,0.012576594,-0.029988565,0.05617764,-0.11699663,-0.001294276,-0.119318806,-0.028421143,0.0083706975,0.007867077,-0.016111365,0.036679022,-0.010726671,-0.015502703,-0.020981738,-0.0060172696,-0.012889849,0.006620809,0.024532843,0.032366928,0.017281475,0.006198957,-0.035149768,-0.008596878,-0.037080664,-0.03622577,0.05342547,-0.0076966393,0.015733726,-0.092926756,-0.018523376,0.0035185388,-0.011155694,0.0098035075,-0.019951183,0.014665258,-0.002913552,-0.0039879247,-0.017686281,-0.039057326,0.0075442935,-0.02223276,0.016817521,0.014036435,-0.07599885,-0.0032947897,0.024847064,0.05310631,0.0099205915,0.022856943,-4.541255e-06,0.047585867,0.018986085,0.04872227,0.0024499805,0.02469114,-0.020558551,-0.023278002,0.050993856,0.0025942926,-0.002485654,0.060468435,-0.002552123,0.070391305,-0.013724844,0.05195841,-0.025318392,0.00888143,-0.017696662,0.011871478,-0.039042994,-0.039154723,-0.025206741,0.038997326,0.011758251,0.09152343,-0.0020060143,-0.015298892,-0.04478551,-0.008810868,0.0038004837,-0.026294652,0.056358133,-0.010185661,-0.035810392,0.026361661,0.018172951,0.03409448,0.019859608,-0.07830901,-0.0030611395,0.000604215,-0.01764508,-0.023285009,-0.02064763,0.011139346,-0.014055519,0.02068525,-0.016731964,0.04298147,0.04905027,0.015152968,0.018949673,0.009731625,-0.016931834,-0.006504017,0.0096397055,-0.027041037,0.0060282783,-0.008100947,0.02522069,0.034547947,0.0875618,-0.07764848,-0.017149443,-0.05740835,-0.011515025,0.003965827,0.017443247,0.0059393635,0.027643489,-0.048335608,0.0059276177,-0.016559267,-0.025288438,0.058173694,-0.0044684573,0.0008633476,0.032718007,0.03366456,0.00242441,-0.020400647,-0.030358402,-0.025441872,0.0129173985,-0.044021748,-0.0050589438,0.0051361844,0.018853448,0.01744865,-0.015902909,0.016510827,0.028258093,0.004643602,0.031605378,0.06004331,0.010123854,-0.022577286,-0.04312839,0.0060801776,-0.010183522,-0.014164038,0.017186724,-0.002544069,-0.038262155,-0.0036220206,0.024704965,0.028256742,0.016104143,-0.015905894,-0.015136652,-0.026747942,0.06757835,0.016003828,-0.013494586,-0.0010748975,0.005946112,0.09628086,-0.018311972,0.010386213,0.0388379,0.015321497,-0.048426982,0.019163128,-0.035282485,-0.10918201,-0.0068167695,-0.004510045,0.1644083,0.0076133767,0.006347428,0.0516986,-0.023688182,-0.053964578,-0.029237557,0.002098498,0.018419808,-0.01925913,0.020239241,-0.040435933,-0.015976826,-0.017945418,-0.04691292,-0.028470892,-0.009683442,0.0034634846,0.033715207,0.0142606795,-0.027988596,0.012266018,-0.042988554,-0.017732805,0.028710213,-0.0013028268,-0.036978174,0.016897226,-0.02454682,-0.01609653,-0.020239675,-0.014611985,-0.02758919,0.002349323,0.019771129,0.010902842,-0.02292548,-0.065341584,-0.024306273,-0.007984819,0.0017758842,-0.036067445,0.041789345,-0.02429698,-0.033750135,-0.025385438,-0.0043185186,0.017848669,0.002663841,-0.007367174,0.1067113,-0.021628384,-0.085670575,-0.0036262907,-0.0033141377,-0.01773761,0.025509935,-0.029360589,-0.005982938,0.012098409,-0.016425706,-0.034464605,0.034492925,0.019525034,0.005307069,-0.030940183,-0.035103437,-0.119914256,-0.020103984,-0.012931149,0.04191553,-0.03062288,-0.023875745,-0.09414581,0.02833716,0.049716946,-0.0036906404,-0.037596174,0.015579755,-0.007871097,-0.0031561404,0.05054436,-0.008007851,0.016690664,-0.030032633,0.06873962,-0.037214853,-0.048955113,0.10883401,0.009112421,0.0010720779,-0.023978826,0.035278887,0.01827005,0.032009058,-0.02398086,-0.057090063,0.01988656,-0.01861712,-0.0045078634,-0.012913422,-0.030522965,-0.0028025312,0.05137729,0.009522184,-0.008565918,-0.0019786009,0.009798784,-0.0337839,-0.02331177,0.0010963681,0.028748088,0.050472178,-0.018135605,-0.020083115,-0.01565782,-0.01927898,-0.01558639,-0.02086866,0.01730454,0.031451978,0.00047930193,0.020825548,-0.016293027,-0.036780156,-0.02757876,-0.039181,-0.06869797,-0.007993336,0.0662255,0.024686491,0.06558104,0.025981743,-0.02752865,-0.04779546,-0.02324721,-0.010952982,0.06978032,0.05968787,-0.028757138,-0.02146996,0.03560968,-0.03485337,0.010431432,-0.0029343076,-0.0071313186,0.011721512,-0.0359249,-0.006808632,-0.020319166,-0.056909747,0.031811275,0.012781623,0.016477188,-0.050573863,-0.005401293,-1.9598223e-05,-0.015423422,0.008543914,0.029693875,-0.085691795,0.012455644,-0.009666167,0.029877473,-0.09211277,6.821354e-05,-0.010908985,-0.013958252,-0.010336989,0.011210935,-0.053007163,-0.01216513,0.019092439,-0.0031855213,-0.040699728,0.0042823143,0.0052306023,-0.003414814,-0.014533286,-0.009252281,0.012749201,0.052165728,0.002599221,-0.031004408,0.0073508034,0.025580728,-0.021399425,-0.01951107,0.018487556,0.024576826,0.040548917,-0.016132835,-0.012210977,-0.007841066,0.015088329,0.024221588,0.051444862,-0.0004173154,-0.008613386,-0.0898546,-0.013222551,0.039775316,0.010183415,-0.03331029,0.0058036842,-0.030653195,0.004007233,0.00054268225,-0.016597122,-0.043318957,-0.013513848,0.021636218,-0.0102809705,0.021314321,0.034927987,-0.07408311,0.0131233325,-0.03349134,-0.051688142,-0.0057351775,-0.0011956493,0.011536842,0.04597758,-0.008084241,0.012271489,-0.032449257,-0.025469499,-0.03500702,0.018146912,-0.04051886,-0.028624974,0.13055876,-0.057271574,-0.038353033,0.008107047,0.00094032125,0.016824385,0.10937477,-0.025338123,-0.019701077,-0.038932994,-0.00095352833,0.00059640984,0.051873054,0.036013,-0.005316191,0.020812936,0.015193511,0.03425798,0.03251072,-0.035513993,0.06474648,0.008626805,0.023564061,-0.012412591,-0.05194267,0.018500341,-0.0052821143,0.018709382,-0.060837984,0.098015726,0.008108083,0.10013001,-0.014975529,0.0071420693,-0.018289885,0.0065465877,-0.02300116,-0.0037901923,0.010659206,-0.014815646,0.047942776,0.0051317634,0.004695526,-0.0038878352,-0.0024825202,-0.01577724,-0.017438436,-0.014026715,0.03418349,-0.001624032,-0.008686483,-0.00483365,0.01856407,-0.061592024,0.108576715,-0.0042246007,-0.007964853,-0.0027353144,0.017864868,-0.008208874,0.05850962,-0.022561692,0.005280325,-0.012669847,0.023883153,0.008783942,-0.05643629,-0.030559987,0.023078805,-0.0067343283,0.040715065,-0.010243178,-0.008260851,0.0121098645,-0.016292239,0.034072973,-0.0031533304,-0.01649201,-0.020860242,0.02083914,0.0070619686,0.032233477,-0.04202185,-5.5737743e-05,0.018016348,0.0004194391,0.008762458,-0.017974725,-0.012184104,-0.011206825,-0.025080869,-0.03136012,-0.0062797656,-0.0036189882,0.0025450462,0.01597083,0.015498758,0.02629615,-0.013142883,-0.083365,-0.017541647,0.022747565,0.027115492,-0.030546235,-0.0049095606,0.007711498,-0.027411312,0.0064991517,-0.0012097347,-0.009843651,-0.021154191,-0.03617153,0.016320175,0.01273051,-0.018065477,-0.006411518,0.028973414,-0.005597611,-0.0040134685,-0.0051365234,0.024186919,-0.007019078,0.011234914,-0.07049444,-0.016868042,-0.028131068,-0.0026733046,0.02907819,-0.0019169446,-0.01630908,0.006121788,-0.030284125,-0.016884765,0.011733436,0.010655886,0.020407883,0.004240279,0.020262195,-0.0010554957,-0.0056742486,-0.011160575,0.07615365,0.004980236,-0.015530518,0.007888831,0.01679127,-0.029106962,-0.032774948,-0.012442981,-0.025125284,0.023612406,-0.007836941,0.07418348,0.003620871,0.036735684,0.02475562,-0.006404105,0.02427288,0.029078634,0.015149997,0.029304354,0.017149955,-0.0017208148,0.037351344,0.010440406,-0.027392829,0.026984006,0.011934682,0.009379512,0.0027580976,-0.04486446,-0.048068475,-0.01881295,-0.007983497,0.02864734,-0.0041369945,-0.02609258,0.10294263,0.14194348,0.027604485,-0.025657319,-0.025849063,0.0013167026,0.028907297,-0.022391431,-0.058536753,0.04980782,-0.0033173973,-0.01681429,-0.031497456,0.05266082,0.0058507025,0.046106026,0.07079814,0.029019281,-0.033252213,-0.024949513,-0.023227079,0.044345696,0.028720612,0.035993654,0.004042464,-0.007162374,-0.027611855,0.0083149625,-0.0041197375,0.020599816,-0.016870242,0.006736792,0.027010333,0.026080228,-0.048329003,-0.0038375047,0.023743141,-0.04360196,0.005768931,0.015572064,-0.031401288,-0.041199703,-0.0063646846,-0.05265413,-0.01555418,-0.048501454,-0.009513367,-0.031521074,-0.0032102296,-0.017747868,0.008131964,-0.015258722,-0.0110885855,-0.0081968885,0.025607469,0.008358821,0.037990432,0.0136970645,0.0096642785,-0.003574366,0.02748777,-0.041253965,-0.017534146,-0.016536336,-0.05350008,-0.01847864,0.030499874,0.01233886,0.012748997,-0.015763482,-0.017207384,-0.009469798,0.014552047,0.020825997,0.00614218,-0.00883512,-0.00028775347,0.013915378,0.014228741,0.026741669,-0.011545956,-0.017111136,-0.0025755218,-0.01572717,-0.06540131,0.014574351,0.019702002,0.044364683,0.020063521,0.027217625,0.037222493,0.008237199,-0.012708796,-0.028476464,0.03232538,0.0012428133,0.01574895,0.019805854,0.04392035,0.016042283,0.0070132734,-0.049340945,-0.01574717,-0.01568428,-0.037084218,0.023757745,-0.048344027,-0.012151505,0.0006124634,-0.03534636,0.020054776,-0.025276277,-0.0065063233,0.009569515,-0.030188976,0.005328514,-0.055656925,-0.022589726,-0.009818628,0.0302604,-0.021098167,-0.032678943,0.024954228,-0.0353828,0.012069833,0.03473703,0.058979176,0.049537495,-0.053071275,-0.0268501,0.03602825,-0.052146498,-0.011838161,0.042210907,0.028716076,0.024795545,0.025314603,0.05566359,-0.020876084,-0.0068768165,0.041320004,0.060640614,5.105333e-05,0.009523149,-0.040443566,0.0030363828,-0.008301144,-0.031827454,-0.010732973,-0.020044448,-0.0062403292,0.009263848,0.08805041,-0.027142491,0.016103674,-0.015526309,-0.013174631,0.07205202,-0.011101557,0.0032860592,0.024017112,-0.017414143,-0.05659143,0.039913416,-0.018471664,0.02005683,0.022995198,0.046703897,-0.02609528,-0.03503181,0.026073765,-0.0007828827,0.021667013,-0.051794168,0.017424421,0.006090894,0.012029336,-0.0065851444,-0.0031947836,0.02434585,-0.024722803,0.0072699487,-0.04186932,0.06156211,0.0073175235,0.014133655,0.030097662,0.0021298346,-0.0005675433,0.048709895,-0.03738741,-0.045841582,-0.0023072208,-0.042792547,0.010516145,0.020965857,0.0065394323,0.027739728,0.052958608,-0.026258653,0.12759337,0.027267495,0.0040319865,-0.008776385,-0.0032081937,-0.023653824,-0.0025626195,-0.01870439,0.02262223,0.013581101,-0.017721752,0.015669497,-0.009307813,-0.004163486,-0.0042716637,-0.012250528,0.03279466,0.0008596943,0.024380105,-0.06664622,-0.008113906,-0.00822318,0.022366224,0.03890201,0.008634116,0.00088581326,-0.0028833016,-0.033720877,-0.014213758,-0.02517056,-0.0046682325,0.003864395,-0.06361205,-0.03851761,0.020917669,0.017891,-0.0058408226,0.02519942,-0.017996268,-0.00042954928,-0.02773974,0.012464203,-0.010447275,-0.048447922,0.027409617,-0.05859848,0.039296493,0.036083996,0.048217334,0.0069167316,-0.014982917,-0.013349512,-0.0029592784,0.033067,0.031986106,-0.08133749,-0.008937289,0.000872126,-0.010437662,0.05252033,0.02753923,-0.074796155,-0.0023311567,0.013863951,-0.012956908,-0.06563947,0.0115263425,0.0066532535,0.0025205363,-0.021768624,-0.013297403,0.026955167,0.07778096,0.00023200065,-0.008222772,0.0046167695,-0.008107506,0.0067164376,0.012143501,-0.016160587,0.054820396,-0.01702732,0.01603273,0.041456725,0.113573544,0.01892971,-0.035779253,0.015547535,-0.035457965,-0.016720764,-0.0553112,-0.019335937,0.018099945,0.030132718,0.039971642,0.016022913,0.0020239057,-0.07758984,-0.009959593,0.016847622,-0.02941285,0.030221391,-0.07266838,-0.031105565,-0.033710476,0.006193609,-0.0035529297,0.018053442,0.043846183,-0.047219425,-0.0016179164,-0.00550563,-0.00480207,-0.022942748,-0.05347081,0.009532237,0.0063322005,-0.017272323,0.008178999,-0.027116628,0.0026838034,0.03285693,0.040236093,0.005390882,-0.011770002,0.028492745,0.019702073,0.0052542123,-0.008511905,-0.017882703,0.00389415,-0.048656825,-0.015297287,-0.09830275,0.026588133,-0.016013332,-0.040056724,0.013214479,0.03229295,-0.10966764,-0.018801035,-0.021376982,0.029018205,0.03562636,-0.015036503,-0.027998082,0.00960017,0.039329328,0.0049285567,-0.025607469,0.021044737,-0.062879466,0.070291504,-0.009908325,0.0047393586,0.014528882,0.015470766,-0.005529605,-0.01085854,-0.0012491271,0.009670313,0.04974416,0.012000653,-0.006637511,-0.006242773,0.0039138743,0.004957531,-0.033880513,0.017761337,0.0104523245,0.017674884,-0.07410517,-0.053782623,-0.006215143,-0.0083335955,-0.02249821,0.044695985,0.0013960286,0.006333818,-0.04906713,-0.0028033648,-0.016285341,0.018759847,-0.048965625,0.02580031,0.011192164,-0.0044332584,0.0017139756,0.024990443,-0.032517496,0.12665857,-0.018660715,0.00442794,0.03640933,-0.038284022,-0.004056188,-0.009783315,-0.053070456,0.028131152,-0.004151803,-0.010132235,-0.022982499,-0.016508818,-0.02221646,0.037226334,0.004511404,0.015031186,0.0019176813,0.011604942,0.00042493833
D3R,-0.011318147,0.068131,0.008213887,0.010177855,-0.019784413,0.019623492,-0.03321955,-0.011451976,0.03690678,-0.019526359,0.0074702455,0.020522188,-0.010641907,-0.0010958039,0.008692159,-0.006124716,0.020374842,0.012266915,-0.009254251,-0.005646559,-0.032027557,-0.034820493,0.079095215,0.0037925167,-0.02865264,-0.029742885,0.032545913,-0.02028525,-0.0033818912,-0.004100863,-0.049912967,0.057438917,-0.116402216,0.014983866,-0.11938973,-3.914222e-05,0.0034777129,0.029293561,0.0067137647,0.04549183,-0.0125854155,-0.0078052096,-0.039205864,0.0010882192,-0.01881619,0.004700038,0.0330124,0.01649009,0.037194777,-0.00043412088,-0.0358822,-0.0004169792,-0.04454293,-0.03780561,0.056382813,0.0079526715,0.013338416,-0.08710375,-0.0071798344,0.015089814,-0.013530321,0.04722684,-0.027947238,0.003893118,0.006773082,-0.0043271543,-0.02133562,-0.042783976,0.008619228,-0.0106159495,0.005592612,-0.01021919,-0.056702808,-0.008135179,0.018736364,0.03250808,-0.01786734,0.019591998,0.004558818,0.051338125,0.02180893,0.062365003,-0.0018086248,0.04098889,0.0031372446,-0.018528828,0.037288424,-0.01705485,0.014646931,0.060106076,0.0035258092,0.055144016,-0.012109253,0.036874052,-0.02720975,-0.009427116,-0.02310912,0.018692818,-0.02108289,-0.02717553,-0.037059117,0.035043858,0.0006196392,0.0783012,0.001786277,0.0028126573,-0.037066687,0.0013261569,-0.0117187975,-0.030555425,0.059035346,-0.01014512,-0.019620009,0.022347039,0.016523628,0.020858575,0.0036198138,-0.064906046,-0.004806114,-0.0055765426,-0.035591505,0.0020761932,-0.028359916,0.007424302,-0.019716479,0.008486192,0.012725374,0.03977435,0.037348147,0.02067535,-0.007187878,0.0020473364,-0.006779121,0.009747923,0.017517097,-0.03438341,-0.014021766,0.0014597714,0.04136394,0.020754533,0.08552204,-0.06652363,-0.03466798,-0.03198357,-0.01057354,-0.0016935146,0.024948519,0.00507725,0.016722579,-0.03413623,-0.0042049563,-0.005866455,-0.030366924,0.03174365,-0.0037911374,0.0020489395,0.03035048,0.019565366,-0.00091964006,-0.013983555,-0.046627387,0.0005016732,0.011676831,-0.05782981,-0.004462962,0.0071609826,0.04189578,0.025525624,-0.008692001,0.028894141,-0.012414229,-0.0119281,0.01766737,0.06546235,-0.005887774,-0.03173585,-0.046606943,0.0024661005,0.0033947574,-0.021133792,0.008138826,-0.006580888,-0.049886074,0.00040079295,0.032548863,0.014634696,0.020299053,-0.01317979,-0.0150504485,-0.024352318,0.058607988,0.032434117,0.0018080171,0.0018514026,0.035609312,0.08435032,-0.015798464,-0.0066886055,0.04046071,0.003814413,-0.03429696,-0.004817924,-0.046410903,-0.118904874,-0.007227,-0.010905692,0.13223241,0.038281422,-0.012082789,0.041822013,-0.005482018,-0.06078412,-0.039106775,0.0018598065,0.0004461187,-0.0045269397,0.0018525672,-0.02989272,-0.012893327,-0.035748657,-0.05303271,-0.027094034,-0.0076026763,-0.010282441,0.036168322,0.0248416,-0.0422513,0.020232271,-0.052421894,-0.031236978,0.024803163,0.029441005,-0.032487754,0.021624928,-0.009091981,-0.013378666,-0.015740583,-0.02876596,-0.04042448,-0.0050575994,-0.00326421,0.029104894,-0.012103572,-0.086307324,-0.028220464,-0.019078618,0.0066540227,-0.03342111,0.045884438,-0.04615835,-0.011176855,-0.015665546,0.0005720535,0.027671183,0.031604685,-0.008719382,0.07432875,-0.033001646,-0.069788404,-0.0014589704,-0.03468077,-0.015759716,0.024057355,-0.04078172,-0.021909652,0.026098993,-0.031134186,-0.024351293,0.023681572,-0.00028621734,-0.0023351305,-0.004637354,-0.03913718,-0.12315062,-0.017878298,-0.015734833,0.011304255,-0.02396645,-0.040790915,-0.08143821,0.031577345,0.06888612,0.0054141986,-0.041322254,0.006750119,-0.01737746,0.008757405,0.028961409,0.010689554,0.05496294,-0.013253336,0.07460295,-0.013471273,-0.041830517,0.12507677,-0.005729766,-0.0016833437,-0.029704489,0.046698496,0.015947692,0.02572549,-0.036866806,-0.063661076,0.0017180276,-0.0069836075,-0.00957193,-0.0081221415,-0.0380191,0.009297277,0.073241614,0.0391182,-0.010703313,0.023949109,0.019728146,-0.020588843,-0.022375695,0.008952074,0.037894405,0.052014723,-0.020517156,-0.018596686,-0.006601045,-0.020335322,-0.018222315,-0.026878726,0.01638125,0.0150099695,-0.013409343,0.01801898,-0.006549652,-0.026202234,-0.031263128,-0.019464342,-0.056915794,0.0139508005,0.049725085,0.014951633,0.04801698,0.018408118,-0.033273097,-0.07318835,-0.016419146,-0.022201767,0.09549368,0.04780208,-0.026061082,-0.0037029372,0.031015228,-0.024350967,0.035491347,0.008660636,0.0043263696,-0.006101412,-0.04545363,0.0022338622,-0.039118018,-0.055416465,0.04482792,0.014968698,0.0059421547,-0.046102222,-0.03263598,-0.0033453763,-0.010248136,0.008261063,0.019675227,-0.09561396,0.034576602,0.022501111,0.00029664903,-0.091714814,0.00089025975,0.029005744,-0.011887779,-0.024423376,0.011672321,-0.07497198,-0.0068022083,0.030835895,-0.018315244,-0.004726876,0.015949808,-0.0037570607,-0.011220409,0.00037430762,0.015438885,0.0033057814,0.0590135,-0.02387883,-0.028339209,0.0002235344,0.0095144585,-0.000398376,-0.0131760575,0.01584542,-0.0114005,0.031818494,-0.023220725,-0.027424466,-0.017118929,0.029282443,0.02423903,0.054088537,0.0035700642,-0.029786091,-0.08872152,-0.0055636843,0.045578968,0.0026517007,-0.041973084,0.0150900865,-0.021663882,0.005842168,0.0021237978,-0.046809115,-0.038866933,0.0055321497,0.025510166,0.0013001626,0.009899602,0.054551817,-0.051790323,-0.0035280765,-0.016461086,-0.07864236,0.0040656226,0.011176786,0.02000639,0.044429883,-0.018703742,0.020039378,-0.034127645,-0.013885502,-0.034320313,0.016986333,-0.034752462,-0.030411705,0.1247796,-0.04442745,-0.06346939,0.028889546,-0.0067149876,0.00992992,0.11383564,-0.044912968,-0.038036987,-0.025021147,-0.014057491,0.021205576,0.04711332,0.018540658,-0.022496685,0.016254002,0.02091213,0.018950725,0.0040774536,-0.03750496,0.05537381,0.00806894,0.024673512,-0.023459649,-0.020039799,0.017955769,0.018304234,0.0013049096,-0.04787805,0.08555233,0.0066795563,0.10592301,-0.02088122,0.026731864,0.0065046656,0.009685823,-0.021347376,0.0049601803,-0.0009786689,0.008860134,0.050222646,0.006388681,0.013906882,0.023182292,-0.020301953,-0.01556892,-0.009824867,-0.018242052,0.034534644,-0.0026762574,-0.008193097,-0.00062600075,0.019620977,-0.06781858,0.0989195,-0.017847702,0.0035092498,-0.014398038,0.02920854,-0.0056346054,0.041103974,-0.020785837,0.0036173677,-0.0015636677,0.024095096,0.029831637,-0.042984523,-0.02427514,0.00050140143,-0.019412613,0.018526493,0.0073400764,-0.008771559,0.016837506,0.0025798266,0.030799152,0.012375976,-0.005503007,-0.019514225,0.03670058,0.015032241,0.0022503503,-0.030545391,-0.017341327,0.034013025,0.011721414,0.030953934,-0.022641554,-0.017467702,-0.012281192,-0.032626726,-0.026520327,-0.004832217,-0.0046348427,0.010033883,0.020075832,0.0058562933,0.022437613,-0.0068519562,-0.071155466,-0.039695457,0.013301547,0.049731914,-0.033938102,-0.007375985,0.023743875,-0.037455667,-0.011379341,0.012076486,0.003297202,-0.02173548,-0.023663634,0.009256217,-0.008197255,-0.015530015,-0.023250688,0.042473678,0.0013764417,-0.016297806,-0.023155125,0.036634006,0.0015949393,0.013859061,-0.038242236,-0.013629411,-0.019865433,0.003514778,0.036138445,0.013167877,-0.018522222,0.004283528,-0.08238622,-0.018282799,0.043282308,-0.0066186404,0.033711452,0.02692357,-0.0008571611,-0.0031367457,-0.0068381373,0.004443849,0.08154287,0.0087973615,-7.0508126e-05,-0.016364457,0.017745461,-0.033945754,-0.015274427,-0.007217612,-0.021573873,0.027401919,-0.00350481,0.07176455,0.016331188,0.016594362,0.02815445,0.009997056,0.0006007956,0.031851932,0.013796444,0.029453658,0.008868674,-0.006509052,0.03676111,-0.000731647,-0.019300885,0.012329645,0.030170985,0.013127779,-0.00019569784,-0.038678203,-0.018910257,-0.023746572,-0.0014356839,0.04173596,-0.001802348,-0.03024895,0.09886231,0.14233145,0.041800756,-0.015759332,-0.021671312,-0.0012423197,0.041296873,-0.00455269,-0.061682373,0.041455954,-0.017656077,-0.033760864,-0.027795607,0.047098827,-0.009138784,0.0575397,0.09282983,0.02515716,-0.028677525,-0.024401518,0.018992696,0.050022528,0.029518003,0.008298977,0.012254976,0.004840332,-0.034054037,0.022263689,-0.027560003,-0.011797529,-0.017589819,0.010852792,0.021498792,0.018999191,-0.043634232,0.016268795,0.009584708,-0.04304563,0.027157493,0.00087465195,-0.003235838,-0.02240222,-0.0036407663,-0.044617947,-0.021379923,-0.024826571,-0.053463,-0.031215018,-0.02093699,-0.022060232,0.011043702,0.017819317,0.009415697,-0.011784437,0.025233535,0.0079305135,0.019920927,0.02768599,-0.004718336,0.016245952,0.0023253679,-0.05132771,-0.024617212,-0.030875215,-0.039431058,-0.0130413985,0.020474195,0.031814348,0.016649848,-0.010988913,-0.04768401,-0.019434096,0.021018375,0.013842531,0.0013852176,-0.005319736,-0.0058235372,0.0044663525,0.037885487,0.029699622,-0.016020449,-0.004409585,-0.017925614,-0.019311374,-0.057393745,0.01830431,0.00037499965,0.04817859,0.022594204,0.016633688,0.024624895,0.0052136434,0.001816706,-0.028556362,0.052419752,0.008630995,-0.0070159314,0.05512524,0.051171742,0.0155220935,-0.022182003,-0.022460487,-0.01348407,-0.013196115,-0.028361812,0.0077846525,-0.06026371,-0.039061364,-0.0033976603,-0.021724353,0.014162464,-0.021585518,0.008389031,0.010097433,-0.02429448,0.019922769,-0.054703727,-0.018097602,-0.017471492,0.056934975,-0.023058621,-0.023356529,0.03190897,-0.038469605,0.008278647,0.022604417,0.06487778,0.04868955,-0.05499305,-0.031530228,0.041494858,-0.031737607,-0.0071185958,0.048943706,0.034760393,0.01909933,0.015135355,0.05893958,-0.017220873,-0.010431497,0.040274743,0.050150085,0.017930808,0.005135311,-0.0334993,0.00660296,-0.014473639,-0.035659872,-0.010017161,-0.033543974,0.018492945,0.007146101,0.068815514,-0.026352797,0.010152301,-0.019741299,-0.009781365,0.059838384,-0.012716054,0.0071755196,0.03999851,-0.01427103,-0.06329596,0.029343164,-0.008129957,0.04939322,0.0041251434,0.046348885,-0.019224549,-0.023397598,0.016896753,0.029278278,0.026444688,-0.027586043,0.022488244,-0.0030548943,0.0028092545,0.004378114,0.0037277574,0.024199111,-0.020940587,0.005274205,-0.0438694,0.06785937,0.013227937,0.0151974335,0.04476423,-0.007471907,0.025492402,0.06683333,-0.048801202,-0.057464883,-0.001070367,-0.03700132,0.0021528483,0.032002747,-0.012863107,0.022884103,0.02348252,-0.038368195,0.12844305,0.02107302,-0.012054232,0.0041426285,0.0046743075,-0.025371354,-0.012611518,-0.029524812,0.03257387,0.020038534,-0.013109135,0.019724201,9.7472075e-05,0.00094790576,0.0084899785,-0.021036046,0.03017079,-0.013254225,0.020983638,-0.06069632,0.00038290024,0.00045117526,0.037656028,0.04490756,0.003954681,0.00080257596,0.007542981,-0.0038958418,-0.020322882,-0.028851202,0.005311245,0.027438782,-0.038989697,-0.03571005,0.0057638134,0.0074087013,0.0019854165,0.035355616,-0.0012890924,-0.0065203537,-0.042080272,0.023550402,0.01680217,-0.030483555,0.041301135,-0.06631244,0.060405854,0.033851102,0.04304593,0.009409413,-0.02580424,0.00023748339,-0.017356822,0.01303805,0.03907565,-0.06208759,-0.014947016,0.01619775,-0.002598338,0.06582635,0.0503611,-0.06791265,-0.009092662,-0.00078645675,-0.017113887,-0.06330404,0.014842225,0.024196945,-0.009630538,-0.019069178,-0.018941332,0.0088789435,0.09144702,-0.008916081,0.00047957778,-0.0093844365,-0.013317432,0.005009632,0.010755146,-0.02494359,0.03704212,-0.015092187,0.029363856,0.036494136,0.11521381,0.014804794,-0.040774357,0.034691,-0.03793732,-0.03211278,-0.062169094,-0.033542186,0.018258067,0.029660512,0.03662683,0.029023262,0.028066479,-0.06178827,-0.013253453,0.016259497,-0.04258847,0.03700231,-0.07189694,-0.02420502,-0.039122168,-0.011215657,0.0060998695,0.03264597,0.046802264,-0.057320442,0.004866779,-0.010044366,0.015280494,-0.023442151,-0.042115513,0.018930873,-0.0031456295,-0.022409027,0.024529757,-0.014100248,0.004399377,0.028250208,0.023706991,0.01633554,-0.007941841,0.03612697,0.01925436,0.011712861,-0.001521373,-0.018140838,0.03204905,-0.05094431,-0.015879802,-0.101003535,-0.0037734914,-0.015880087,-0.011497188,0.0029489612,0.001234293,-0.12682368,-0.033589564,-0.018029846,0.03621117,0.038347755,-0.043033645,-0.007054018,0.03204379,0.02741893,-0.029599179,-0.020474596,0.009803292,-0.0767813,0.08413127,0.0064970795,-0.003485927,-0.013458638,0.0015563392,-0.010165972,0.013234363,0.027138367,0.008040921,0.052377358,0.015367359,-0.005392338,-0.012082993,0.0114271175,0.011679535,-0.018848425,0.007351916,-0.0071078683,-0.009801521,-0.070819095,-0.04009701,0.012136953,-0.0001464489,-0.025253534,0.035329413,-0.004541359,0.0011007887,-0.053618852,0.00887062,-0.027365444,0.014006501,-0.07254531,0.015190405,0.012218876,0.007670534,0.010641214,0.00825615,-0.032981053,0.12557322,-0.02593343,0.016282763,0.029564977,-0.035178903,0.029633114,0.005228913,-0.044434242,-0.014523771,-0.007398444,0.020204494,-0.03379536,-0.012535217,-0.007436421,0.0028088933,0.006067312,0.0152003225,0.0011027369,0.0025042505,0.009363448
D4R,-0.01660457,0.089387886,0.03538784,0.0065519507,-0.033846967,0.015444987,-0.010690355,-0.039117463,-0.0016062123,0.022535488,0.024155822,0.018980982,-0.012999728,-0.021674514,0.014279228,0.020730462,-0.0059933583,-0.01807036,-0.014364632,0.0037761065,-0.05867798,-0.05805465,0.03278254,-0.012633965,0.0078942925,-0.014749769,-0.0013122348,-0.047747664,-0.017756505,0.03312619,-0.0062419986,0.084824525,-0.10346361,-0.033985812,-0.11168345,0.04939346,0.0088062165,0.0038438705,0.03032999,0.05275236,-0.031773858,-0.018461866,-0.023330983,-0.0040356903,0.0018634739,-0.011603992,0.038980424,0.025970314,-0.0079974765,0.04261779,-0.032098763,0.015651748,0.008167555,-0.051196378,0.06734566,-0.0022832807,-0.028634824,-0.08018272,0.0053857835,0.028946014,-0.006520633,0.05637506,-0.069227844,0.03170044,-0.005456722,-0.0046933885,-0.022334384,-0.039024934,0.07857247,-0.009262802,0.018826328,-0.035677616,-0.110870615,-0.028259296,-0.012438708,0.039649773,-0.024176192,-0.016161177,0.024548544,0.04255999,0.003043486,0.094967835,0.025823835,0.044389006,-0.01482787,-0.004385609,0.059280287,-0.043690983,0.011676449,0.04911158,0.0049962667,0.044689123,-0.0177084,0.03617899,-0.028276201,-0.005333329,-0.01978392,0.07821392,-0.07068553,-0.023424765,-0.04874105,0.032883197,-0.052356664,0.082227126,-0.0020549148,0.026594859,-0.043286745,0.025398327,-0.03335792,-0.0626921,0.06605878,-0.021683838,0.0015541364,0.040646456,0.042835232,0.0071545597,0.045196556,-0.012078132,-0.017046323,-0.0013572857,-0.07151845,0.019585935,-0.040861864,0.024950286,-0.019711154,0.015522369,0.012273364,0.059202753,0.004380677,0.031626698,0.047056954,-0.057345115,0.0056280214,-0.017402101,0.0036333667,-0.029834166,0.016404929,0.01747015,0.04858853,0.0008615998,0.07314194,-0.0177001,-0.03008714,-0.0366058,-0.031609107,0.009504022,0.0097481785,0.042613246,0.14229025,-0.06598026,0.026364975,-0.030269995,0.028325878,0.0028381208,0.008015803,-0.039292164,0.021435285,0.0013262292,-0.037758667,0.023117144,-0.06205598,0.03840668,-0.009914265,-0.09177287,-0.06983218,-0.023384672,0.051294435,0.06753231,0.042995773,0.009623942,0.02018272,0.013861748,0.022432037,0.102294974,-0.028812943,0.0008448576,-0.012846792,0.016540078,0.03184352,-0.049144566,0.019670155,-0.008677532,-0.026865505,-0.022832952,0.012550981,-0.027975284,0.017671555,-0.036313955,-0.00986692,-0.014429318,0.070342116,0.049481396,-0.012654028,0.012840449,-0.02415056,0.059475183,-0.06110631,-0.0016024562,0.01595802,-0.0024536622,-0.085567445,-0.04136778,-0.027285319,-0.10740882,0.0534976,0.0067561087,0.16593008,0.059708092,-0.031839427,0.044536114,-0.020047218,-0.10945954,-0.041826185,0.017710838,0.029419683,-0.052711643,0.032071102,-0.03987076,-0.03020419,-0.06445315,-0.118192516,0.0019763608,-0.004144775,-0.0024853891,0.030899275,0.020873869,-0.059445783,0.0035940404,-0.10439193,-0.084828146,0.06590409,0.057132576,-0.010796465,0.026427947,0.027235677,-0.06269974,-0.059411816,-0.015378815,-0.060464498,-0.052925482,-0.020621615,0.00908884,-0.054130692,-0.09284974,-0.06128068,-0.017682288,-0.07217312,-0.0536795,-0.0026684103,-0.058890346,-0.039997146,0.024439918,-0.024184585,-0.008386892,0.0014197343,-0.01357115,0.076473184,-0.021698657,-0.0940866,-0.012101932,-0.07005363,-0.032396186,0.042014617,-0.10286676,-0.041801434,0.015964879,-0.042092197,-0.04756281,0.037815172,-0.006027239,-0.027981533,-0.04461172,0.013276029,-0.12090261,-0.043183673,-0.026239265,-0.019706562,0.010057443,-0.04597158,-0.13103215,0.044042915,0.04302822,0.0037410161,-0.007508916,-0.017671755,-0.03083198,-0.02498305,0.040676847,0.014408093,0.10299025,-0.019656247,0.09792854,-0.03662885,-0.037395854,0.12735978,-0.0044899876,-0.029803984,-0.07328075,0.056564707,-0.0032321052,0.0014931468,-0.014473772,-0.07032451,0.014224487,-0.05006709,-0.031958528,0.0029659818,-0.04334987,0.04830215,0.10016506,0.032812648,0.007826879,0.041700203,0.052908085,-0.033547387,-0.020007636,0.019206254,0.005491762,0.054103334,-0.05434479,-0.0071346527,0.040968776,-0.010669662,0.00305331,-0.03348871,0.046019353,0.0024093774,-0.0031362972,0.020057628,-0.043201692,-0.0061854147,-0.086553395,-0.008618654,-0.08455413,-0.012930574,0.074811496,-0.022492021,0.059320178,0.025600998,-0.022730272,-0.094456226,-0.06874066,-0.055642672,0.069164455,0.09086463,-0.031843077,-0.033535637,0.038021926,-0.03750898,0.055854853,9.137705e-05,0.021890214,-0.077868596,-0.043178048,0.05474304,-0.03166966,-0.026891727,0.015428419,-0.0134528,0.044303115,-0.048104446,-0.04301036,0.019709226,-0.046260286,0.035468303,0.01428818,-0.07960933,0.03328707,-0.041289523,0.013344318,-0.055403553,0.005450028,-0.021022895,0.0038157266,-0.033245828,-0.010072914,-0.05186383,0.010935734,0.07782911,-0.00011249032,0.032584757,0.042869553,-0.003420321,-0.006214491,0.029391434,-0.0047021843,0.017599652,0.030499479,-0.030159598,-0.11100203,-0.03491146,-0.015112133,-0.05372614,-0.014339103,-0.050311588,-0.012341433,0.009526316,-0.019967815,-0.07319543,0.025180662,0.034268435,-0.02523994,0.07528781,0.035495568,0.024833659,-0.101527795,0.032271665,0.13553992,0.01742115,-0.03898972,-0.04446087,-0.058472604,0.061952975,0.013246701,-0.055028502,-0.020571038,0.05527795,0.04862075,0.025213541,-0.04520784,0.0258343,-0.06121723,-0.004023376,0.030127248,-0.06815154,0.0102485595,0.05231991,-0.017658226,-0.005057051,-0.02480478,-0.011478706,-0.07316894,-0.035163477,0.009538148,0.03471779,-0.059509095,0.015530222,0.16000368,-0.06777242,-0.007437937,0.04093037,-0.027193472,0.060768783,0.09822378,-0.051597506,-0.04635245,-0.051488083,-0.053254746,0.034897648,0.076944605,-0.013747197,-0.008214713,0.047887925,-0.027758848,0.027555406,0.026237598,-0.038438763,0.021882642,0.023809379,-0.009216616,-0.02861276,-0.0035658411,0.044419754,0.023566524,0.0010323696,-0.013372437,0.07286868,-0.011611293,0.13215877,-0.0385249,0.025999233,0.029637266,0.024725102,-0.009193086,-0.009127104,0.033951644,0.027247997,0.16053945,0.0135285575,0.0074957623,0.048612405,-0.028253647,0.01059221,-0.03405131,0.015235062,0.008316811,-0.005627391,-0.0021157712,-0.005112791,0.007997904,-0.07428606,0.0840624,-0.0060382425,-0.04269344,-0.03450989,0.101834044,0.0025283522,-0.006938358,-0.0142568825,0.013929577,-0.07450865,0.059738167,0.044051204,-0.106261835,-0.008345543,-0.025351087,-0.0142684495,-0.056428462,0.049581103,-0.021429574,-0.0417492,0.0125958845,0.015248927,0.0139344605,0.005380128,-0.06771566,0.025040135,-0.0058411197,0.010888712,-0.047710475,-0.028711213,0.09237331,0.018879343,0.0035644271,-0.03710343,-0.024208806,0.04104841,-0.033963207,-0.007855112,-0.041369285,-0.013063563,0.04032937,0.0339951,0.017036721,0.0016700681,-0.048809476,-0.08102388,-0.08932979,0.02514298,0.08258816,-0.009994739,0.017218012,0.034067046,-0.036207635,-0.027782436,0.007882049,0.017441373,0.0020373967,-0.01977555,0.028812652,0.005896777,-0.024058335,-0.026805783,0.005693183,0.005914949,-0.0017219147,-0.013302981,0.04273382,-0.023093365,0.042869855,-0.003327084,-0.016277725,-0.036195304,-0.030273378,0.036251415,0.008492487,0.008579599,0.0051355567,0.00955518,-0.012635004,0.047709655,-0.026442025,0.08276236,-0.01203054,0.026937082,0.024668118,0.02834552,0.016438484,0.024088686,-0.010884121,-0.0065094815,-0.009190402,-0.036172934,-0.013275613,-0.0071618655,-0.025938325,-0.017681625,0.07628973,-0.059043847,0.13544732,-0.015516344,0.06756616,0.065853246,-0.0019656213,-0.018064976,0.018168416,-0.0071694846,-0.041489445,-0.04157609,0.05740461,0.04701856,-0.031296603,-0.014300073,0.03153986,0.02067133,-0.026751224,0.0021958181,-0.015940616,-0.038587257,0.015414344,-0.00875891,-0.0021260986,-0.0369389,-0.011507171,0.07355467,0.14004153,0.12558068,-0.013863809,-0.051288884,0.012215255,-0.009582187,0.026476592,-0.015921319,0.018473715,-0.06936375,-0.026304495,-0.09369213,0.022546029,-0.009276477,0.033185888,0.10388459,0.036478743,0.006553049,-0.10048459,0.022160731,0.07051389,0.0038530468,0.029967122,0.07797845,0.020634491,-0.002588115,0.049517702,-0.0105902245,-0.030682096,-0.015806979,0.021230761,0.024390168,-0.005264969,-0.0700198,-0.010498422,0.0015193135,-0.0357224,0.0152901625,-0.026337871,-0.008399367,-0.01116367,0.018726923,0.008979786,0.008413719,-0.025135556,-0.066946544,0.023623368,0.036698926,-0.031770326,0.0022758082,0.028381841,0.002597317,0.013461996,0.027671013,0.018644826,-0.030908082,0.05771451,0.012397627,0.04930177,-0.0128491735,-0.0251596,-0.013118841,-0.0016999752,0.006051842,-0.005494248,-0.03632636,0.07705765,0.009401579,-0.0047329925,-0.04634308,0.031051705,0.0022963532,-0.012651894,-0.031736784,-0.021711854,-0.023666242,0.012019287,0.040106498,0.013857843,-0.033331107,0.048538774,0.007153371,-0.002587834,-0.06305149,-0.0009306638,-0.01963716,0.020342868,-0.046170693,-0.0061845346,0.012811904,-0.017975785,-0.0041278484,0.009694829,0.05491581,-0.0020777446,-0.042390235,0.038804367,0.032413904,0.026495676,-0.040825192,-0.023672413,0.013310191,-0.040251296,0.0024990398,0.038006313,-0.03674928,-0.056745853,-0.04156643,0.0038774696,0.031188378,-0.026896907,0.007606701,-0.011391367,-0.028412502,0.008563328,-0.05167799,0.006741783,0.021907978,0.020979038,-0.0092616165,0.021780679,0.065176345,-0.03715993,-0.030466026,0.029096553,0.12932584,0.043323208,-0.05865598,-0.003116642,0.039381605,-0.037478562,-0.021407684,0.073810965,0.041199926,0.02574023,0.0363466,0.057572085,-0.02890769,-0.105917536,0.0025372687,0.029626086,0.030109715,0.01543015,-0.056308363,-0.0072036344,0.0061895386,-0.016380908,0.038048472,-0.040196154,0.023485111,-0.0022636575,0.0054466776,0.0415768,0.025176972,-0.00912458,-0.057225127,0.049350087,0.037098914,-0.015711723,0.10657865,-0.0039518885,-0.089148216,0.047462363,-0.0030468744,0.00064642273,-0.0021758545,0.064274296,-0.031121558,0.0017762468,0.037878513,0.017725518,-0.008437855,0.009489893,-0.02181548,0.03113854,0.019415388,0.005497137,0.054608446,-0.014425554,-0.0017969841,-0.010343982,-0.008557517,0.067055404,-0.004212043,0.036034573,0.0015225126,-0.049652383,0.020859646,0.08008904,-0.06461989,-0.012419956,0.003131586,-0.07141479,-0.0021540772,-0.011365202,-0.005002958,0.029965004,0.06373847,-0.042321816,0.12169568,0.016057175,-0.013611891,-0.0016936738,0.0023353526,-0.03311574,0.007180752,-0.048259176,0.022326155,0.00490225,-0.024776503,0.08517884,0.054718494,-0.055356402,0.042630717,-0.051275093,0.03162399,-0.029040994,0.049921874,-0.073379874,-0.016363714,-0.023531916,-0.00359395,0.044532657,-0.005026709,-0.03401557,0.008546666,0.01014107,-0.032360636,0.038970537,0.0029741614,0.02607362,-0.07267886,-0.020457326,-0.014781433,0.031462718,-0.00750343,0.089858994,-0.016994411,0.022914454,-0.074350804,0.013462801,0.009981111,-0.012493519,0.022291115,-0.09071325,0.08026028,-0.0516138,0.03169384,-0.027575497,-0.04385808,-0.00039058225,-0.047604475,0.036442023,0.08127056,-0.057898637,-0.009769877,-0.0426193,-0.023722168,0.09125055,0.016366571,-0.04077776,0.005607364,0.009918386,-0.040542472,-0.05554681,-0.056380406,0.022352677,0.03855423,-0.010530932,-0.031624205,-0.013131895,0.13415,-0.021207072,-0.01711563,-0.06887222,-0.0153266685,0.0116744535,0.04010229,-0.06251075,0.028790645,0.03925705,0.0103909215,0.06889379,0.10955519,0.058082275,-0.030403027,0.033853166,-0.07703633,-0.03091046,-0.04063383,-0.032910205,0.016047154,0.09986681,0.03289949,0.024338575,0.015434214,-0.08878832,0.0022768565,0.056140143,-0.06516995,0.038499203,-0.03266119,-0.059870243,-0.06584902,-0.081121385,0.025950046,0.022251453,0.075034045,-0.10180823,-0.012662269,-0.028662426,0.006402587,-0.006865063,-0.06192671,0.014010515,-0.023429789,-0.012457052,0.003669015,-0.013924465,-0.036580775,0.026884183,0.02487512,0.047082033,0.043730494,0.09078845,0.065148756,0.0014781631,0.031197412,-0.008717313,0.0674825,-0.033004217,-0.022647502,-0.09960416,-0.012358241,-0.018317327,-0.04282107,-0.009791537,-0.012394612,-0.1666286,-0.04952311,-0.012447833,-0.0065208026,0.016849011,-0.028541982,0.016796874,0.0995495,-0.035328314,-0.101140715,-0.020827655,0.01646336,-0.070210695,0.047649007,-0.014797046,-0.01802801,-0.055707525,0.023675282,-0.019808583,0.024025721,-0.001118537,-0.024545724,0.013908801,-0.030428179,-0.019636825,-0.0077492045,-0.009381036,-0.015123112,-0.009087038,0.010782481,0.005547975,-0.047005482,-0.032128334,-0.10680451,0.01176289,-0.013616783,0.02052908,-0.055731352,0.0053355233,-0.032653403,-0.05609712,-0.006362907,-0.046646092,0.007460864,-0.0755271,0.0317173,0.032279603,-0.008144995,0.031944733,-0.006297172,-0.043116346,0.118780844,-0.022498675,0.018811187,0.004016906,-0.012901333,0.04314815,-0.029526994,-0.041038055,0.05960941,0.038409386,0.067512415,-0.07268524,0.0053211083,0.0021646768,0.0024923084,-0.0053780517,0.00236586,-0.029070288,0.018852452,0.051309045
D5R,0.0015273225,0.06369534,0.027792092,0.012736333,0.017661298,0.006443375,-0.02679271,-0.027320327,0.037519988,-0.04485655,0.016904756,0.033403475,-0.022022817,0.012187048,0.024623059,-0.006854164,0.00638587,0.016224978,-0.0086761005,-0.026108693,-0.035738047,-0.03643639,0.06517113,0.0009602241,-0.0060780435,-0.016848179,0.041557513,-0.0238103,-0.019369733,-0.0016949911,-0.046742946,0.055542503,-0.12100913,-0.005194944,-0.120135,0.0029486206,0.006741228,0.014526738,-0.009949234,0.041890062,-0.0004418021,-0.014924978,-0.036843553,-0.018229902,-0.04154461,0.0024474121,0.021370398,0.015509502,0.017418254,-0.0194555,-0.025906676,0.0065661473,-0.025850557,-0.024621101,0.04547626,-0.0041888957,-0.0014228941,-0.081958234,-0.013215553,0.0119276475,0.0020043524,0.028910575,-0.025653636,-0.004949917,0.014682632,-0.019609405,-0.023278343,-0.03273159,0.019989476,-0.0085734585,-0.0012891578,-0.019897075,-0.067821704,-0.010736366,0.01657961,0.03291324,-0.004829337,0.017188743,0.0010529615,0.05397768,0.033617944,0.06956759,0.012525901,0.02077647,0.0020297398,-0.015352728,0.040826794,-0.012501107,0.008259425,0.02003146,0.02116554,0.034190632,-0.013500683,0.052413102,-0.030478911,-0.010400047,-0.005684223,0.015046397,-0.022977382,-0.028741077,-0.021902345,0.031040281,0.002807855,0.07557996,0.020266186,-0.021661503,-0.030999277,-0.009509996,0.007318093,-0.043256633,0.058623273,-0.0051392415,-0.03477222,0.042091068,0.036266197,0.016814288,0.014749197,-0.05626292,-0.0017211452,-0.01562536,-0.031395342,-0.0096244365,-0.043745916,-0.019423895,-0.014371612,0.007866742,-0.0249338,0.03192495,0.055235174,0.01681942,0.014730457,0.009969504,-0.015801229,-0.004105198,0.024279112,-0.03026791,-0.0006064204,0.0035403369,0.026890412,0.028745592,0.0925448,-0.059567045,-0.058027264,-0.03221593,-0.02770242,-8.887577e-05,0.027559493,0.02315568,0.06271137,-0.031240402,0.013271376,-0.016284611,-0.021429658,0.06026999,-0.0026599912,0.0015633901,0.04593699,0.032797396,-0.013955906,0.0013690954,-0.0065226634,0.014789613,0.010870741,-0.05723128,-0.013066391,0.014869872,0.030667575,0.050138094,-0.027556062,0.038262993,-0.032872133,0.009741689,0.031838737,0.071373284,-0.011735621,-0.021015782,-0.047323596,0.0127740465,-0.001994842,-0.022943197,0.029283987,0.014677675,-0.030485613,-0.004310058,0.037861235,0.009240844,0.025543794,-0.020558303,0.0113255065,-0.031403847,0.06780657,0.030810881,-0.014381627,0.00091704784,0.01164752,0.068655916,-0.019673333,-0.0002600652,0.023123935,0.021956915,-0.05923732,-0.006128102,-0.022649137,-0.10565665,-0.01711402,-0.0070117945,0.11629905,0.0140302265,-0.009902605,0.04070402,-0.0054598334,-0.062014848,-0.032992203,0.0006894915,-0.0018333034,-0.00644843,-0.0021592006,-0.054430325,-0.0109678805,-0.01846108,-0.031025318,-0.03777066,0.002079277,-0.015731052,0.02625349,0.02025349,-0.03445071,-0.0048223212,-0.028716322,-0.014184431,0.0037293185,0.022058034,-0.025967224,0.032263525,-0.025738005,-0.025588268,-0.021685464,0.0036147821,-0.024095431,-0.007968101,-0.009055972,0.018545609,-0.037266634,-0.08299154,-0.030986043,-0.008342817,-0.018164318,-0.030588772,0.062277935,-0.045766365,-0.023655294,-0.016037663,0.008831439,-0.0021067066,0.002923581,-0.014560945,0.08181926,-0.016643258,-0.061512265,-0.012036695,-0.02751991,-0.02046928,0.02986242,-0.04233636,-0.005548775,0.030422274,-0.016206693,-0.028011354,0.027019408,0.0022390643,-0.006495333,-0.004243348,-0.022587294,-0.12089628,-0.026727997,-0.030578885,0.022130635,-0.031687055,-0.047177814,-0.08131846,0.048070453,0.045005392,-0.004362264,-0.036031123,0.004790654,-0.00975376,0.018039228,0.03561048,-0.01971917,0.031133411,-0.01711428,0.05896333,-0.01033059,-0.037906017,0.10863204,-0.016306326,-0.010105988,-0.026711354,0.035722926,0.005649525,0.012185981,-0.019947104,-0.045888096,0.002620737,-0.008598461,0.00010728012,-0.010391523,-0.032454066,0.024171663,0.0761863,0.02171044,-0.021821873,0.018185362,0.0056542093,-0.03523092,-0.036259905,0.005004691,0.028279016,0.05914602,-0.011198,-0.030931333,-0.010906641,-0.009400787,0.007170478,-0.027402502,-0.0061263,0.03592467,-0.018896028,0.023074858,0.0066248663,-0.01144187,-0.05278357,-0.027613921,-0.07323137,0.015113818,0.02717743,-0.003653137,0.04660822,0.027029626,-0.020802507,-0.059123315,-0.022333546,-0.0068047293,0.060753323,0.05344118,0.0029063069,-0.0014996101,0.044557482,-0.029360134,0.029318336,0.004434133,0.003969195,0.0036204446,-0.008817865,-0.0021602842,-0.022991689,-0.070623465,0.05630552,0.0034519243,0.025879035,-0.05764972,-0.021787472,0.010623388,-0.0002860778,0.016398927,0.023896907,-0.07846496,-0.0031057724,0.016765459,-0.007839357,-0.06118986,0.014789047,0.005571004,-0.006464608,-0.017175976,0.023099482,-0.07245804,0.008460339,0.015783068,-0.008335044,-0.008385282,0.025946978,0.004217161,-0.007903504,-0.0009704276,0.012450835,-0.016746463,0.036864508,3.878313e-05,-0.045556102,0.0068021235,0.03499706,-0.009407598,-0.036585417,0.025645714,0.0076857274,0.026744355,-0.01770244,-0.019737458,-0.03432559,0.025322367,0.039036077,0.03605674,-0.0074382415,-0.021184687,-0.092907056,0.019175056,0.05783605,0.0065806955,-0.048036717,0.00045382377,-0.020247044,0.007897326,0.015470249,-0.03175124,-0.049133305,0.011581867,0.04204545,-0.01700091,-0.007215474,0.016699752,-0.050675206,0.010045897,-0.010688795,-0.042157814,0.005912826,0.010400754,0.022398174,0.04968278,-0.013425635,-0.043637272,-0.021341236,-0.016913975,-0.05062792,0.013641879,-0.043060683,-0.041605737,0.12724851,-0.0395049,-0.037851177,0.013243329,-0.008865287,0.011558121,0.10808441,-0.027375568,0.008121011,-0.0370775,0.00035337458,-0.003273837,0.05660554,0.013126497,-0.009477501,0.03360451,0.0077345916,0.0017843937,0.011171326,-0.05033065,0.049235158,0.007683134,0.029428106,-0.03222647,-0.026347388,0.011249239,0.033345405,-0.0055101765,-0.060745977,0.08973609,0.01994468,0.096488014,-0.014475423,0.010212117,0.0023086946,0.01635993,-0.021783017,0.0042298604,-0.009964437,0.0040012137,0.03903355,0.022740059,0.007582859,0.03210068,-0.032375976,-0.020543374,-0.022443907,-0.0118561955,0.06391598,-0.007177776,-0.017455852,-0.0012635664,0.027587783,-0.057398014,0.10724901,-0.009254266,-0.002849435,-0.013090308,0.039892834,-0.012293578,0.031484757,0.0066067926,0.019806294,-0.009019414,0.014842928,0.008003089,-0.06903754,-0.031981137,-0.011570742,-0.008652737,0.052546088,0.004105367,-0.0063972254,0.003836246,0.0036853636,0.005753643,-0.00738229,0.0003118655,-0.027634706,0.025647165,0.015431141,0.0066580176,-0.025557928,-0.0013788908,0.021841163,0.025198262,0.029010428,-0.027291583,-0.00625144,-0.013125592,-0.02820562,-0.015456864,-0.008805923,0.0038984118,-0.0034510004,0.020314451,-0.0077884193,0.0395653,-0.0010407836,-0.086255744,-0.04897467,0.013312504,0.056690846,-0.039559755,-0.0067472896,0.020138653,-0.025812456,0.022498429,0.017011361,-0.00041296298,-0.049005214,-0.02155205,0.029898861,-0.014837059,-0.024563335,-0.017676158,0.012706044,0.012760344,-0.022919694,-0.0068093007,0.03792748,-0.0016472259,0.017078497,-0.05416504,-0.0066710594,-0.016126897,-0.002100872,0.032508258,-0.0013882689,-0.0011481812,0.017086975,-0.046707787,0.001326797,0.038876828,-0.004589596,0.041582447,0.019230621,0.011987057,-0.0057897326,-0.014068107,4.395624e-05,0.084707566,0.0111629935,-0.0037163794,-0.00255722,0.024989147,-0.027195446,-0.026511654,-0.0126966555,-0.046284,0.034369715,-0.006769122,0.07230067,0.006134129,0.01691383,0.040280115,0.011921463,0.005161594,0.03550861,-0.013636767,0.028429534,-0.00018329741,-0.022094011,0.04589707,0.0073187547,-0.01416849,0.023883931,0.031607885,0.027612675,0.004965797,-0.033871848,-0.02080958,-0.031242998,-0.022516103,0.0378667,-0.009306435,-0.01984481,0.076263346,0.14508575,0.044207927,4.1598792e-05,-0.022657188,0.0021199472,0.025810525,0.008677212,-0.035000652,0.043035213,-0.023800848,-0.035063844,-0.044170786,0.043225683,-0.00025217782,0.044594858,0.08523016,0.017102556,-0.02477405,-0.042629045,0.0059426725,0.029217677,0.03620867,0.0148997735,0.025121104,0.02142901,-0.029940033,0.026256945,-0.033403825,-0.0010323474,-0.010894598,0.023029463,0.003939381,0.009817586,-0.04597001,0.011739801,0.01922957,-0.045615166,0.016322643,0.007225399,0.013805949,-0.009435601,-0.009769699,-0.022649188,-0.01796645,-0.032070257,-0.032874353,-0.027774142,0.00066227384,-0.041796844,-0.0056012073,0.0043404577,0.025077578,0.0065404386,0.025469737,0.01033526,0.013115643,0.023479953,0.0004567669,0.008385994,0.0017868847,-0.06743253,-0.007291329,-0.019077577,-0.031846028,-0.0018444669,0.022643765,0.023899244,0.013168547,-0.0031938532,-0.014850366,-0.027917584,0.036003124,0.018610898,-0.023756932,-0.0063717198,0.003523777,-0.0024579347,0.0013020361,0.023229161,-0.024943294,-0.03750484,-0.0074808975,-0.024986332,-0.051466472,-0.0040040235,0.019834619,0.03185961,0.03531327,0.0077394885,0.03372704,0.019957352,0.0038146093,-0.042325307,0.02723967,-0.008049632,-0.006617472,0.040469103,0.060332283,0.0007652137,-0.01510517,-0.023158472,-0.024608692,-0.018421993,-0.036281765,0.015400143,-0.06723325,-0.053720333,-0.0053308266,-0.022273194,0.034677528,-0.023806576,-0.0102682235,0.013808668,-0.032664083,0.0012724062,-0.06855171,-0.012581515,-0.019670554,0.043040976,-0.028040336,-0.019668164,0.024269728,-0.027562266,0.017862054,0.021411575,0.046163194,0.059131853,-0.056751702,-0.023998417,0.01204267,-0.033502426,-0.023360463,0.045699526,0.04021792,-0.0055336524,0.022298185,0.06025748,-0.03364012,-0.014493126,0.030975865,0.0315269,0.020817542,-0.009691953,-0.049576167,-0.0004975666,-0.022452045,-0.04651713,-0.0018555163,-0.045237735,0.0046615126,0.03542161,0.057897404,-0.02559337,-0.009197769,-0.026295533,0.005900921,0.041236006,0.0047090137,0.011737918,0.02292442,-0.012673382,-0.06432195,0.019736633,-0.0014049772,0.031807415,0.011701932,0.033118937,-0.033037134,-0.040706135,0.02202924,-0.030909372,0.021629313,-0.053828686,0.0068648458,0.024957517,0.014416473,0.011389062,-0.015754104,0.030235719,-0.026966646,0.013451708,-0.03935471,0.073422655,-0.0038871095,0.015683768,0.026578292,-0.015428236,0.014743967,0.0624431,-0.043334864,-0.04016751,-0.0038208796,-0.027558085,0.018766768,0.019114727,0.01725296,0.010270936,0.046412967,-0.03955715,0.12642792,0.01974098,-0.003504723,0.0027473299,-0.004993323,-0.034096863,-0.013574939,-0.0016473394,0.043359082,-0.0035352989,-0.015195789,0.015516518,-0.007739665,-0.012525726,-0.0016757102,-0.01695393,0.046132207,-0.011375246,0.016441355,-0.0525694,-0.0018673643,-0.02148947,0.045783356,0.03506397,0.008215106,-0.0090525625,0.017814174,0.0034464025,0.00021122162,-0.022529518,-0.004062409,0.020290228,-0.040166475,-0.03295228,0.009130701,0.017404312,-0.014527357,0.040483482,-0.016911836,-0.00074511557,-0.06520388,0.005373267,0.0051283105,-0.03430656,0.04423894,-0.0657981,0.042214826,0.025382822,0.045691285,0.0070576323,-0.02928766,0.0022111118,-0.014202641,0.032974686,0.056649286,-0.040433455,-0.020291522,-0.0034953607,-0.00037731414,0.06977758,0.038317703,-0.08310978,-0.0070350557,0.008947918,0.017396571,-0.045328677,0.009190006,0.003190545,-0.005466387,-0.008817563,0.0007788403,-0.004817553,0.11805632,0.0032190706,0.026324434,0.0070643206,-0.035691082,0.00043107077,0.017540233,-0.04220821,0.04212963,-0.011644809,0.010243464,0.02974818,0.1140781,0.011550743,-0.039695404,0.015222006,-0.0477762,-0.033004873,-0.059967864,4.734483e-05,0.011909381,0.031048138,0.038376845,0.017692221,0.018782906,-0.055325642,-0.0067446195,0.011989513,-0.052573282,0.039687447,-0.08820893,-0.021320168,-0.035838045,-0.005614481,-0.024796968,0.035368446,0.036621056,-0.0307318,-0.004041392,0.0013333217,-0.011621909,-0.03343506,-0.019472158,0.011969606,0.013965184,-0.030882373,0.011822904,-0.006791966,0.0036701965,0.0360037,0.03533727,0.00045473472,0.010945064,0.011884163,0.022312272,0.010348939,-0.0012085873,-0.01042467,0.01694,-0.048364807,-0.027217653,-0.09455097,0.0048339083,-0.011080954,-0.017128216,-0.0011291894,0.022212062,-0.09086504,-0.03866812,-0.014955378,0.025196908,0.032105323,-0.034775224,-0.009187984,0.023133323,0.013235082,-0.018436048,-0.014519222,0.018105311,-0.065374784,0.060657334,-0.0036378556,-0.00036011203,-0.01646492,0.011805635,-0.009529839,0.020130837,0.021523949,-0.010888156,0.03142219,0.012133089,-0.01240708,-0.02341306,-0.007477227,0.008235017,0.00089320185,0.03242435,0.0307022,-0.01585134,-0.061336413,-0.05611048,-0.011086485,0.000344061,-0.023304164,0.016657287,-0.010819059,-0.0010728106,-0.043745868,0.0062366575,0.0038134297,0.0013433767,-0.03973605,0.02112892,0.022967748,0.008372319,0.0032750266,0.006503343,-0.011964885,0.12636283,-0.03465635,0.015513877,0.023383375,-0.026389688,0.0002190372,0.008980275,-0.0436938,0.010522356,0.0029822255,0.011494863,-0.04994928,-0.008681323,-0.0060684807,0.028250063,0.001083374,0.010395395,-0.026587104,-0.0061044088,0.024257984
5HT2A,0.010798558,0.08331463,0.03969011,0.0073982915,-0.0016741763,0.024141703,-0.024533574,-0.028137268,0.038358714,-0.014767485,0.0006120544,0.024275875,0.001320684,0.012865815,0.031842142,-0.018179048,0.035409797,0.01867365,0.013608945,-0.015049365,-0.028720593,-0.02728509,0.05488216,-0.014966242,0.007755963,-0.015468178,0.021320004,-0.0113651715,-0.016421944,-0.011109249,-0.027963601,0.064631514,-0.118642986,0.0035592483,-0.119333975,0.0053797243,0.007940033,0.018406658,-0.009330292,0.03360656,0.005719109,-0.0055947453,-0.041825883,-0.009788738,-0.01851617,-0.015704952,0.01782428,-0.008772974,0.018847499,-0.0004885465,-0.051122192,-0.0025490383,-0.03829947,-0.04452432,0.06075419,0.0029014244,0.02448827,-0.064302795,-0.033194263,0.010553411,-0.01179179,0.040943876,-0.0049326937,-0.008315184,-0.0010093144,-7.130133e-05,-0.025688654,-0.034027442,0.0073820283,-0.0063871387,0.001207043,-0.016313393,-0.059662066,-0.0091378465,0.02415378,0.040643603,0.010520047,0.017371615,0.012682005,0.02913016,0.029359162,0.051802818,0.008564634,0.01897525,-0.009563175,-0.02532756,0.016517434,-0.008912345,0.023170192,0.06267993,0.0085376715,0.035034254,-0.015750926,0.045809567,-0.01372385,0.014318772,-0.025075935,0.03140133,-0.029068684,-0.03436816,-0.045657314,0.015277059,0.019506708,0.07132366,0.011909331,0.0062025297,-0.032988913,0.003667709,0.0037367917,-0.043127883,0.050630156,-0.018007519,-0.026414705,0.017669678,0.03016463,0.047235828,0.02461593,-0.065962054,-0.0051789014,0.0064625842,-0.040535897,-0.007219184,-0.034565944,0.024696391,-0.0068501867,-0.015503592,-0.021601576,0.046789188,0.042015873,0.008845283,0.020502225,0.0062292954,-0.016705826,-0.016097626,0.02361415,-0.010902261,0.0036514616,0.00054933055,0.008319226,0.010862297,0.089342475,-0.055433936,-0.019770723,-0.01624677,-0.051247157,0.00939157,0.021695098,0.0109697655,0.076809116,-0.03220379,0.02119762,0.0015318288,-0.024758065,0.048038777,-0.017410694,0.010753267,0.05852165,0.039754532,-0.031042287,-0.010592209,-0.025313914,-0.018152293,0.00393117,-0.07514708,0.0014350936,-0.00045174602,0.0142813055,0.04814548,-0.016581394,0.0040875147,0.025073752,0.0073185293,0.026936768,0.069090515,-0.0043977825,-0.04173305,-0.050399482,0.013474675,-0.011063455,-0.0048572244,0.013199908,0.019841945,-0.051421016,-0.001230494,0.032725852,0.017805187,0.018264184,-0.006587026,-0.012058983,-0.03148613,0.05461776,0.022695541,-0.004761169,0.008295742,0.02994336,0.07326877,-0.006848226,0.007717022,0.031688932,0.03805841,-0.046408553,0.008980275,-0.023426997,-0.117474355,-0.016668752,-0.03305666,0.12364628,0.015362573,0.017251799,0.034229744,-0.017147902,-0.043914955,-0.040500402,-0.0027064618,0.009327154,-0.0032040551,0.0021967702,-0.03435869,0.0041428017,-0.024524966,-0.025813712,-0.031833228,0.0009226799,-0.013256984,0.054996066,0.02757247,-0.059037883,0.0044612885,-0.035601955,-0.02140531,-0.0003293882,0.02475788,-0.03288721,-0.004290541,-0.0365761,-0.016879356,-0.013296968,-0.010001096,-0.035031304,-0.016344141,0.02303419,0.03237074,-0.038237296,-0.0628339,-0.01423972,-0.034515325,-0.00885695,-0.031116592,0.056898244,-0.042895697,-0.010839595,-0.0137467235,-0.0017845331,0.009029564,-0.0063022887,-0.016029725,0.103589766,-0.0076588024,-0.054698683,-0.007378421,-0.041481752,-0.0042210133,0.029096352,-0.027905514,0.009065013,0.022845784,-0.006174928,-0.027363503,-0.01629806,0.0040638046,-0.01962499,-0.014695441,-0.04892556,-0.12463523,0.0017421651,-0.03974597,0.040394444,-0.03475096,-0.041569974,-0.08629461,0.041218534,0.048542477,-0.005063043,-0.043136965,-0.007782048,-0.00494987,0.01322233,0.020879393,0.004767121,0.055254906,-0.019108253,0.06043305,-0.017647944,-0.058152672,0.111975245,-0.0031230096,-0.012856041,-0.017396348,0.037614282,0.010365764,0.032144733,-0.021290492,-0.06918564,0.02613225,-0.009952062,0.00423954,-0.027945247,-0.031653725,0.015672933,0.082148895,0.005556154,-0.0069550844,-0.00047905784,0.013341742,-0.030330993,-0.027513416,0.01017511,0.03348058,0.044889595,0.002482672,-9.139278e-05,-0.038854383,-0.028866442,-0.010397253,-0.024387361,0.01708817,0.06545878,-0.012046316,0.025109654,-0.0099068945,-0.03844326,-0.040186647,-0.010341877,-0.07027169,0.009291516,0.034883812,0.015079293,0.04668534,0.026818853,0.0017737816,-0.05707474,-0.0017055655,-0.02976737,0.058522575,0.04568362,-0.01227057,-0.023338115,0.01259534,-0.011838684,0.026161367,0.005738016,0.0026683055,0.005627434,-0.03938258,0.0048204684,-0.052573178,-0.063700534,0.04788191,0.016258067,0.012016375,-0.040195823,-0.011859681,-0.005833057,-0.007556987,0.004763494,0.027473608,-0.104235604,0.007924263,0.023486886,0.005731482,-0.09071477,0.0051689707,-0.020113792,-0.0011066282,-0.016854815,0.0060893046,-0.06874599,-0.007797143,0.021201346,0.01001292,-0.030515747,-0.011279127,0.016599588,0.029081017,-0.0119089065,0.0030489976,0.010904605,0.07077671,-0.0023148658,-0.00768604,-0.0056128907,0.025193108,-0.015600328,-0.029742396,0.041473906,0.0011988456,0.022798393,-0.028138552,-0.0074673537,0.012364733,0.009926893,0.017925268,0.03365464,-0.002470964,-0.034508925,-0.08705238,-0.009463529,0.01433098,0.01251053,-0.061667603,-0.016136073,0.0058771214,-0.023023024,0.005483944,-0.0060952185,-0.05575439,-0.0071835225,0.03645199,-0.008989927,0.02687079,0.049822208,-0.04235892,0.0014498628,-0.0011013703,-0.04554401,-0.015372663,-0.018575897,0.012524388,0.06633678,-0.005709338,-0.04096583,-0.012280685,-0.031774633,-0.022122717,0.0073782997,-0.030134909,-0.029732304,0.12860836,-0.047041792,-0.04593136,0.006098497,-0.017748883,0.025673218,0.11213586,-0.054955292,-0.023273379,-0.020681394,0.0020497025,-0.004668484,0.029267121,0.04472792,-0.022297585,0.0133372815,0.0034761261,0.015441599,0.007907973,-0.027873155,0.055301465,0.0012872242,0.018406264,-0.012552397,-0.046082508,-0.0012182207,0.008394341,0.008296824,-0.045660518,0.07743789,-0.007908811,0.09542896,-0.0020227109,0.0140769575,-0.008589781,0.00646617,-0.013368646,0.0022346978,0.012628349,-0.00964069,0.048333693,0.015568188,0.011600029,0.024718173,-0.03129716,-0.033366587,-0.017119847,-0.002794783,0.04442197,-0.00828427,-0.02162257,0.0029555946,0.0005694433,-0.06082694,0.0951508,-0.024542969,-0.0030348855,-0.0036923192,0.028580787,-0.026831394,0.041668843,-0.018483656,0.033030838,0.008988573,0.028081294,-0.007873596,-0.023517473,-0.022280952,-0.0049975896,-0.016393721,0.06292202,0.0027048977,-0.009326982,0.0072171837,-0.014219798,0.023494042,0.010228017,-0.031475127,-0.024769384,0.030879043,0.02521529,0.018858027,-0.03404083,0.013473007,0.0099886935,-0.0017438775,0.009204108,-0.015580236,-0.011512218,-0.016498744,-0.026882585,-0.032787267,-0.017742068,0.0037685898,0.0025764266,0.029949127,-0.008281147,0.027995886,0.007582134,-0.056876294,-0.06294193,0.021832572,0.021046057,-0.029461153,0.010139273,0.012314592,-0.06256753,0.01873188,0.014356645,0.0026809997,-0.015070008,-0.052745648,0.023842879,-0.0124280555,-0.030389454,-0.010467995,0.0431962,0.0140675595,0.001720189,-0.022272997,0.019070577,-0.006251109,0.011920191,-0.06473328,-0.00937877,-0.01756029,0.0062196795,0.0338898,0.025151353,-0.007326442,0.002246067,-0.046271194,-0.015709627,0.014126688,-0.009164877,0.01659565,0.018130755,-0.0082621155,-0.00522123,-0.006710187,0.007915358,0.08209482,0.012276797,-0.0041026,-0.0065997336,0.018316448,-0.024337806,-0.011509193,-0.0009316173,-0.02877194,0.03748568,-0.013032286,0.061568238,0.020774309,0.024491763,0.035884283,-0.006840018,0.012157346,0.025143763,-0.0071241325,0.05939124,0.0038999955,-0.0050248085,0.01688618,0.0049752584,-0.004973134,0.04453277,0.021650845,0.012980806,0.0019591295,-0.04682773,-0.0060139117,-0.019616298,-0.0023523557,0.059191182,-0.013820116,-0.016642328,0.08133981,0.14299998,0.030615803,-0.032557145,-0.016067179,0.005672699,0.03704197,-0.0120527465,-0.048744254,0.037258808,0.009045836,-0.012425468,-0.026366308,0.049408693,-0.017815292,0.029456852,0.09414433,0.036553837,-0.017238459,-0.03706849,-0.0070641157,0.039864108,0.013811201,0.022710072,0.010673618,0.014658935,-0.02076677,0.002336369,-0.043613885,-0.01244902,-0.027740233,0.008490077,0.023795543,0.012361396,-0.025773924,0.004952622,0.0138799865,-0.049799297,0.005127003,0.020289684,-0.017991103,0.00843179,0.008528847,-0.046945512,-0.028847964,-0.06116254,-0.041477073,-0.030828103,-0.014262637,0.0058489935,-0.0012955433,-0.012605331,-0.002938731,-0.018937578,0.033319164,0.002833168,0.02637431,0.015954765,0.017432943,0.0029409777,-0.030214954,-0.05672432,-0.01318318,-0.017549891,-0.06334083,-0.017652249,0.022932678,0.012832567,0.014260695,0.011488475,-0.022777835,-0.02747225,0.02506254,0.017339766,-0.013156397,-0.015360681,-0.0026581555,-0.0032110205,0.020098653,0.012949574,-0.034532055,-0.024582056,-0.019128269,-0.01694822,-0.07034366,0.0067943027,0.0115403095,0.039849028,0.038815647,0.026035428,0.051159028,0.008342601,-0.011330589,-0.026088664,0.052692525,-0.012081215,-0.0060388846,0.0475027,0.033847697,0.02000431,-0.009046806,-0.019952057,-0.005968663,0.0010980456,-0.01628171,0.007721025,-0.063415214,-0.028444165,0.000250135,-0.02568282,0.03893999,-0.026244655,-0.0017878012,0.009046166,-0.017077051,-0.0016587666,-0.03792206,0.01140054,-0.024240494,0.05748739,-0.03385543,-0.029200014,0.013487534,-0.034893442,0.00012934486,0.028237514,0.022471692,0.059764545,-0.033665918,-0.023309356,0.028531281,-0.04242063,-0.0009061151,0.047079433,0.040319268,0.0073115183,0.019679436,0.06126216,-0.016060332,-0.019651182,0.03050419,0.051981036,0.0046941116,0.017167497,-0.040586807,0.013959448,-0.008687952,-0.04028534,-0.027579986,-0.042525697,0.0016938597,0.015865967,0.08352612,-0.044928655,-0.008322977,-0.03298459,-0.010533294,0.051738206,0.003223813,0.012857806,0.028399926,-0.023958534,-0.057155024,0.013293965,-0.021024061,0.033533692,-0.008904314,0.060608346,-0.012639413,-0.016924508,0.023531787,-0.060154013,0.016652279,-0.035633884,0.0066897813,0.018684462,0.025037186,0.028183792,-0.010965381,0.025053862,-0.024201553,0.019398525,-0.039046653,0.053942766,-0.012370535,0.008032885,0.025921104,-0.0034023344,0.025795477,0.039519373,-0.022755606,-0.03300824,0.003122506,-0.038792815,0.011290248,0.049877994,-0.0052370983,0.031957503,0.023619333,-0.021531431,0.12968108,0.012492192,-0.014186414,0.027622215,-0.0036344558,-0.024442326,-0.025748836,-0.005683897,0.018048195,-0.0067080976,0.013057332,0.014428489,-0.0011697778,0.0027447187,-0.004489854,-0.024942702,0.027332645,-0.0113198,0.045694266,-0.041806646,-0.0063892542,-0.019428564,0.039859764,0.03910361,0.008389793,-0.0038259374,0.0052453964,7.545366e-06,0.0066372477,-0.026426768,0.00076540565,0.0039205533,-0.045638695,-0.041161023,0.031885326,0.043689113,-0.019933833,0.032914374,0.005347345,-0.026735784,-0.021139437,0.019445924,0.014366628,-0.03985336,0.042322826,-0.05809853,0.035746347,0.044302054,0.04674545,0.029287688,-0.0073755383,-0.030323576,-0.005634649,0.03472488,0.0230928,-0.07491981,-0.02875753,0.00887788,0.0016920957,0.07441125,0.026430111,-0.07237808,-0.031914093,-0.010728678,0.00123491,-0.044425897,0.008890993,0.019577872,-0.0065770405,0.0020537286,-0.012950292,0.0039412524,0.12099898,-0.0007232749,0.029099667,-0.009823297,0.0025977006,-0.00079655595,0.032893464,-0.023095202,0.050269175,-0.031654388,0.02402383,0.03599579,0.11560229,0.019900294,-0.046959434,0.024988385,-0.04356573,-0.026276454,-0.06587689,-0.026664315,0.022273924,0.016392559,0.044793345,0.015428357,0.036171097,-0.03916891,-0.01636422,0.012738132,-0.019820057,0.025951123,-0.09071404,-0.0111184195,-0.04735176,0.01233375,-0.026590688,0.025574807,0.04501137,-0.0054102167,-0.0049608215,-0.0018158166,-0.021929251,-0.009214936,-0.028835008,0.01611088,-0.007843576,-0.016223976,0.005115704,-0.011027093,-0.016634354,0.029472325,0.029275063,0.0136745535,-0.0026720872,-0.0035199977,0.01930042,0.0017036471,0.004946282,-0.020720264,0.0017430797,-0.05708396,-0.023819648,-0.09566033,0.028762562,-0.0105959065,-0.014025379,0.023902291,0.03394894,-0.098770574,-0.025774986,-0.0154786855,0.033585098,0.042564735,-0.040291343,-0.031756785,0.0257938,0.026305204,-0.006301978,-0.015137867,0.00950298,-0.059968237,0.06724033,-0.021384668,0.00911301,-0.020131411,0.0059735063,-0.0134971095,-0.008395763,0.017438674,-0.0018294397,0.028301198,0.0033036391,-0.01027236,0.007041894,-0.012560962,0.010227468,-0.006805664,0.022253023,0.024176868,0.031882938,-0.0626752,-0.051086605,0.010471946,0.013866636,-0.007127781,0.033231243,-0.015278881,-0.00051538704,-0.03882161,0.0020976847,-0.012983335,0.027842913,-0.05688418,0.030476967,0.012020838,0.009301461,-0.001936216,0.008586964,-0.020213136,0.12576357,-0.02559385,-0.008814684,0.034249697,-0.026668994,-0.001674892,0.014418378,-0.024146572,-0.005256439,0.0013685935,0.015301789,-0.026022386,-0.02405748,-0.014428592,0.05016738,-0.01128714,0.011298865,-0.009634176,-0.01152155,0.021037646
